
\data\
ngram 1=33800

\1-grams:
-0.4771127	</s>
-99	<s>
-4.704987	A
-4.704987	A'RONY
-4.704987	AARON
-4.704987	ABACK
-4.704987	ABAFT
-4.704987	ABALONE
-4.704987	ABANDON
-4.704987	ABANDONED
-4.704987	ABANDONING
-4.704987	ABANDONMENT
-4.704987	ABASEMENT
-4.704987	ABASHED
-4.704987	ABATED
-4.704987	ABATEMENT
-4.704987	ABATEMENTS
-4.704987	ABATING
-4.704987	ABBAYE
-4.704987	ABBE
-4.704987	ABBE'S
-4.704987	ABBEVILLE
-4.704987	ABBEY
-4.704987	ABBOT
-4.704987	ABBOT'S
-4.704987	ABBREVIATE
-4.704987	ABDALMALIK
-4.704987	ABDICATED
-4.704987	ABDICATION
-4.704987	ABDOLMUMEN
-4.704987	ABDOMINAL
-4.704987	ABDUCT
-4.704987	ABDUCTING
-4.704987	ABDUCTIONS
-4.704987	ABE
-4.704987	ABED
-4.704987	ABEDARE
-4.704987	ABETTING
-4.704987	ABHOR
-4.704987	ABHORRED
-4.704987	ABHORRENCE
-4.704987	ABHORRENT
-4.704987	ABIDE
-4.704987	ABIDING
-4.704987	ABIGAIL
-4.704987	ABIGAIL'S
-4.704987	ABIJAH
-4.704987	ABILITIES
-4.704987	ABILITY
-4.704987	ABJECT
-4.704987	ABJECTLY
-4.704987	ABJECTNESS
-4.704987	ABLAZE
-4.704987	ABLE
-4.704987	ABLEST
-4.704987	ABLY
-4.704987	ABNER
-4.704987	ABNORMAL
-4.704987	ABNORMALITIES
-4.704987	ABNORMALLY
-4.704987	ABNORMITIES
-4.704987	ABOARD
-4.704987	ABODE
-4.704987	ABODES
-4.704987	ABOLISH
-4.704987	ABOLISHED
-4.704987	ABOLISHING
-4.704987	ABOLITION
-4.704987	ABOLITIONIST
-4.704987	ABOLITIONISTS
-4.704987	ABOMINABLE
-4.704987	ABOMINABLY
-4.704987	ABOMINATION
-4.704987	ABOOT
-4.704987	ABORIGINAL
-4.704987	ABORIGINALLY
-4.704987	ABORIGINES
-4.704987	ABORTIVE
-4.704987	ABOU
-4.704987	ABOUND
-4.704987	ABOUNDED
-4.704987	ABOUNDING
-4.704987	ABOUT
-4.704987	ABOVE
-4.704987	ABOVEMENTION'D
-4.704987	ABRAHAM
-4.704987	ABRASION
-4.704987	ABRASIONS
-4.704987	ABREAST
-4.704987	ABREK
-4.704987	ABREKS
-4.704987	ABRIDGED
-4.704987	ABROAD
-4.704987	ABRONIA
-4.704987	ABRUPT
-4.704987	ABRUPTLY
-4.704987	ABSALOM
-4.704987	ABSALOMED
-4.704987	ABSCESSES
-4.704987	ABSENCE
-4.704987	ABSENCES
-4.704987	ABSENT
-4.704987	ABSENTED
-4.704987	ABSENTEE
-4.704987	ABSENTING
-4.704987	ABSENTLY
-4.704987	ABSINTHE
-4.704987	ABSOLUTE
-4.704987	ABSOLUTELY
-4.704987	ABSOLUTION
-4.704987	ABSOLUTISM
-4.704987	ABSOLVE
-4.704987	ABSORB
-4.704987	ABSORBED
-4.704987	ABSORBING
-4.704987	ABSORBINGLY
-4.704987	ABSORBS
-4.704987	ABSORPTION
-4.704987	ABSTAIN
-4.704987	ABSTAINED
-4.704987	ABSTENTION
-4.704987	ABSTINENCE
-4.704987	ABSTRACT
-4.704987	ABSTRACTED
-4.704987	ABSTRACTEDLY
-4.704987	ABSTRACTION
-4.704987	ABSTRACTLY
-4.704987	ABSURD
-4.704987	ABSURDISSIMUM
-4.704987	ABSURDITIES
-4.704987	ABSURDITY
-4.704987	ABSURDLY
-4.704987	ABU
-4.704987	ABUNDANCE
-4.704987	ABUNDANT
-4.704987	ABUNDANTLY
-4.704987	ABUSE
-4.704987	ABUSED
-4.704987	ABUSES
-4.704987	ABUSING
-4.704987	ABUSIVE
-4.704987	ABYSMAL
-4.704987	ABYSS
-4.704987	ABYSSES
-4.704987	ACADEMICAL
-4.704987	ACADEMICIAN
-4.704987	ACADEMIES
-4.704987	ACADEMY
-4.704987	ACCELERATING
-4.704987	ACCELERATIVE
-4.704987	ACCELERATOR
-4.704987	ACCENT
-4.704987	ACCENTED
-4.704987	ACCENTING
-4.704987	ACCENTS
-4.704987	ACCENTUATED
-4.704987	ACCENTUATION
-4.704987	ACCEPT
-4.704987	ACCEPTABLE
-4.704987	ACCEPTANCE
-4.704987	ACCEPTANCES
-4.704987	ACCEPTATION
-4.704987	ACCEPTED
-4.704987	ACCEPTING
-4.704987	ACCEPTS
-4.704987	ACCESS
-4.704987	ACCESSIBLE
-4.704987	ACCESSION
-4.704987	ACCIDENT
-4.704987	ACCIDENTAL
-4.704987	ACCIDENTALLY
-4.704987	ACCIDENTS
-4.704987	ACCLAIMED
-4.704987	ACCLAMATION
-4.704987	ACCLAMATIONS
-4.704987	ACCLIVITIES
-4.704987	ACCOMMODATE
-4.704987	ACCOMMODATED
-4.704987	ACCOMMODATES
-4.704987	ACCOMMODATING
-4.704987	ACCOMMODATION
-4.704987	ACCOMMODATIONS
-4.704987	ACCOMPANIED
-4.704987	ACCOMPANIES
-4.704987	ACCOMPANIMENT
-4.704987	ACCOMPANIMENTS
-4.704987	ACCOMPANY
-4.704987	ACCOMPANYING
-4.704987	ACCOMPLI
-4.704987	ACCOMPLICE
-4.704987	ACCOMPLICES
-4.704987	ACCOMPLISH
-4.704987	ACCOMPLISHED
-4.704987	ACCOMPLISHING
-4.704987	ACCOMPLISHMENT
-4.704987	ACCOMPLISHMENTS
-4.704987	ACCORD
-4.704987	ACCORDANCE
-4.704987	ACCORDED
-4.704987	ACCORDING
-4.704987	ACCORDINGLY
-4.704987	ACCORDION
-4.704987	ACCOST
-4.704987	ACCOSTED
-4.704987	ACCOSTING
-4.704987	ACCOSTS
-4.704987	ACCOUNT
-4.704987	ACCOUNTABLE
-4.704987	ACCOUNTANT
-4.704987	ACCOUNTED
-4.704987	ACCOUNTIN
-4.704987	ACCOUNTING
-4.704987	ACCOUNTS
-4.704987	ACCOUTRED
-4.704987	ACCOUTREMENTS
-4.704987	ACCREDITED
-4.704987	ACCREDITS
-4.704987	ACCRETIONS
-4.704987	ACCRUE
-4.704987	ACCUMULATE
-4.704987	ACCUMULATED
-4.704987	ACCUMULATING
-4.704987	ACCUMULATION
-4.704987	ACCUMULATIONS
-4.704987	ACCURACY
-4.704987	ACCURATE
-4.704987	ACCURATELY
-4.704987	ACCURSED
-4.704987	ACCUSATION
-4.704987	ACCUSATIONS
-4.704987	ACCUSE
-4.704987	ACCUSED
-4.704987	ACCUSER
-4.704987	ACCUSERS
-4.704987	ACCUSES
-4.704987	ACCUSING
-4.704987	ACCUSTOM
-4.704987	ACCUSTOMED
-4.704987	ACE
-4.704987	ACEPHALA
-4.704987	ACERBITIES
-4.704987	ACES
-4.704987	ACHE
-4.704987	ACHED
-4.704987	ACHES
-4.704987	ACHIEVE
-4.704987	ACHIEVED
-4.704987	ACHIEVEMENT
-4.704987	ACHIEVEMENTS
-4.704987	ACHIEVING
-4.704987	ACHILLES
-4.704987	ACHING
-4.704987	ACHIOR
-4.704987	ACID
-4.704987	ACIDS
-4.704987	ACIDULATED
-4.704987	ACKNOWLEDG'D
-4.704987	ACKNOWLEDGE
-4.704987	ACKNOWLEDGED
-4.704987	ACKNOWLEDGEMENT
-4.704987	ACKNOWLEDGING
-4.704987	ACKNOWLEDGMENT
-4.704987	ACKNOWLEDGMENTS
-4.704987	ACME
-4.704987	ACONE
-4.704987	ACORN
-4.704987	ACORNS
-4.704987	ACQUAINT
-4.704987	ACQUAINTANCE
-4.704987	ACQUAINTANCES
-4.704987	ACQUAINTANCESHIP
-4.704987	ACQUAINTED
-4.704987	ACQUAINTING
-4.704987	ACQUASPARTA
-4.704987	ACQUIESCE
-4.704987	ACQUIESCED
-4.704987	ACQUIESCENCE
-4.704987	ACQUIESCING
-4.704987	ACQUIR'D
-4.704987	ACQUIRE
-4.704987	ACQUIRED
-4.704987	ACQUIREMENT
-4.704987	ACQUIRES
-4.704987	ACQUIRING
-4.704987	ACQUISITION
-4.704987	ACQUISITIONS
-4.704987	ACQUITTAL
-4.704987	ACQUITTED
-4.704987	ACRE
-4.704987	ACRES
-4.704987	ACRID
-4.704987	ACRIMONY
-4.704987	ACROBAT
-4.704987	ACROBATIC
-4.704987	ACROPOLIS
-4.704987	ACROSS
-4.704987	ACROSTICS
-4.704987	ACT
-4.704987	ACTE
-4.704987	ACTED
-4.704987	ACTING
-4.704987	ACTION
-4.704987	ACTIONS
-4.704987	ACTIVATED
-4.704987	ACTIVE
-4.704987	ACTIVELY
-4.704987	ACTIVITIES
-4.704987	ACTIVITY
-4.704987	ACTOR
-4.704987	ACTORS
-4.704987	ACTRESS
-4.704987	ACTRESSES
-4.704987	ACTS
-4.704987	ACTUAL
-4.704987	ACTUALITY
-4.704987	ACTUALLY
-4.704987	ACTUATED
-4.704987	ACUMEN
-4.704987	ACUPUNCTURE
-4.704987	ACUTE
-4.704987	ACUTELY
-4.704987	ACUTENESS
-4.704987	ACUTEST
-4.704987	ACY
-4.704987	AD
-4.704987	ADAD
-4.704987	ADAGE
-4.704987	ADAM
-4.704987	ADAM'S
-4.704987	ADAMANTINE
-4.704987	ADAMITE
-4.704987	ADAMS
-4.704987	ADAPT
-4.704987	ADAPTABILITY
-4.704987	ADAPTABLE
-4.704987	ADAPTATION
-4.704987	ADAPTED
-4.704987	ADAPTING
-4.704987	ADD
-4.704987	ADDED
-4.704987	ADDER
-4.704987	ADDERS
-4.704987	ADDICEHEAD
-4.704987	ADDICTED
-4.704987	ADDING
-4.704987	ADDISON
-4.704987	ADDITION
-4.704987	ADDITIONAL
-4.704987	ADDITIONS
-4.704987	ADDLE
-4.704987	ADDLED
-4.704987	ADDLEPATED
-4.704987	ADDRESS
-4.704987	ADDRESSED
-4.704987	ADDRESSER
-4.704987	ADDRESSES
-4.704987	ADDRESSING
-4.704987	ADDS
-4.704987	ADELA
-4.704987	ADELAIDE
-4.704987	ADEPT
-4.704987	ADEQUATE
-4.704987	ADEQUATELY
-4.704987	ADHERE
-4.704987	ADHERED
-4.704987	ADHERENCE
-4.704987	ADHERENTS
-4.704987	ADHERING
-4.704987	ADHESIONS
-4.704987	ADHESIVE
-4.704987	ADIEU
-4.704987	ADIEUS
-4.704987	ADIEUX
-4.704987	ADINI
-4.704987	ADJACENT
-4.704987	ADJECTIVE
-4.704987	ADJECTIVES
-4.704987	ADJOINING
-4.704987	ADJOURNED
-4.704987	ADJOURNMENT
-4.704987	ADJUNCT
-4.704987	ADJURATION
-4.704987	ADJURE
-4.704987	ADJURED
-4.704987	ADJUST
-4.704987	ADJUSTED
-4.704987	ADJUSTING
-4.704987	ADJUSTMENT
-4.704987	ADJUSTMENTS
-4.704987	ADJUTANT
-4.704987	ADJUTANT'S
-4.704987	ADMETUS
-4.704987	ADMINISTER
-4.704987	ADMINISTERED
-4.704987	ADMINISTERING
-4.704987	ADMINISTRATION
-4.704987	ADMINISTRATION'S
-4.704987	ADMINISTRATIVE
-4.704987	ADMIRABLE
-4.704987	ADMIRABLY
-4.704987	ADMIRAL
-4.704987	ADMIRALS
-4.704987	ADMIRALTIES
-4.704987	ADMIRALTY
-4.704987	ADMIRARI
-4.704987	ADMIRATION
-4.704987	ADMIRATIONS
-4.704987	ADMIRE
-4.704987	ADMIRED
-4.704987	ADMIRER
-4.704987	ADMIRERS
-4.704987	ADMIRES
-4.704987	ADMIRING
-4.704987	ADMIRINGLY
-4.704987	ADMISSIBLE
-4.704987	ADMISSION
-4.704987	ADMIT
-4.704987	ADMITS
-4.704987	ADMITTANCE
-4.704987	ADMITTED
-4.704987	ADMITTEDLY
-4.704987	ADMITTING
-4.704987	ADMIXTURE
-4.704987	ADMONISH
-4.704987	ADMONISHED
-4.704987	ADMONISHING
-4.704987	ADMONITION
-4.704987	ADMONITIONS
-4.704987	ADO
-4.704987	ADOBE
-4.704987	ADOBES
-4.704987	ADOLESCENCE
-4.704987	ADOLPHUS
-4.704987	ADOPT
-4.704987	ADOPTED
-4.704987	ADOPTING
-4.704987	ADOPTION
-4.704987	ADOPTS
-4.704987	ADORABLE
-4.704987	ADORATION
-4.704987	ADORE
-4.704987	ADORED
-4.704987	ADORES
-4.704987	ADORING
-4.704987	ADORN
-4.704987	ADORNED
-4.704987	ADORNING
-4.704987	ADORNMENT
-4.704987	ADRAMMYTIUM
-4.704987	ADRIAN
-4.704987	ADRIFT
-4.704987	ADROIT
-4.704987	ADROITNESS
-4.704987	ADS
-4.704987	ADULATOR
-4.704987	ADULT
-4.704987	ADULTERATE
-4.704987	ADULTERATED
-4.704987	ADULTEROUS
-4.704987	ADULTS
-4.704987	ADVANC'D
-4.704987	ADVANCE
-4.704987	ADVANCED
-4.704987	ADVANCEMENT
-4.704987	ADVANCES
-4.704987	ADVANCING
-4.704987	ADVANTAGE
-4.704987	ADVANTAGEOUS
-4.704987	ADVANTAGES
-4.704987	ADVENT
-4.704987	ADVENTITIOUS
-4.704987	ADVENTURE
-4.704987	ADVENTURER
-4.704987	ADVENTURERS
-4.704987	ADVENTURES
-4.704987	ADVENTURESS
-4.704987	ADVENTURESSES
-4.704987	ADVENTURING
-4.704987	ADVENTUROUS
-4.704987	ADVERSARIES
-4.704987	ADVERSARY
-4.704987	ADVERSARY'S
-4.704987	ADVERSE
-4.704987	ADVERSELY
-4.704987	ADVERSITY
-4.704987	ADVERTISE
-4.704987	ADVERTISED
-4.704987	ADVERTISEMENT
-4.704987	ADVERTISEMENTS
-4.704987	ADVERTISER
-4.704987	ADVERTISERS
-4.704987	ADVERTISING
-4.704987	ADVICE
-4.704987	ADVISABLE
-4.704987	ADVISE
-4.704987	ADVISED
-4.704987	ADVISEDLY
-4.704987	ADVISEMENT
-4.704987	ADVISER
-4.704987	ADVISERS
-4.704987	ADVISES
-4.704987	ADVISING
-4.704987	ADVOCACY
-4.704987	ADVOCATE
-4.704987	ADVOCATED
-4.704987	ADVOCATES
-4.704987	ADZUMA
-4.704987	AEDIFICATUM
-4.704987	AEGINA
-4.704987	AEOLIAN
-4.704987	AERA
-4.704987	AERIAL
-4.704987	AERONAUTICAL
-4.704987	AEROPLANE
-4.704987	AEROPLANES
-4.704987	AESCULAPIUS
-4.704987	AESTHETIC
-4.704987	AESTHETICALLY
-4.704987	AETEOLOGIZED
-4.704987	AETIUS
-4.704987	AFAR
-4.704987	AFEAR'D
-4.704987	AFECKSIONATE
-4.704987	AFFABILITY
-4.704987	AFFABLE
-4.704987	AFFABLY
-4.704987	AFFAIR
-4.704987	AFFAIRS
-4.704987	AFFECT
-4.704987	AFFECTATION
-4.704987	AFFECTED
-4.704987	AFFECTING
-4.704987	AFFECTION
-4.704987	AFFECTIONAL
-4.704987	AFFECTIONATE
-4.704987	AFFECTIONATELY
-4.704987	AFFECTIONATENESS
-4.704987	AFFECTIONES
-4.704987	AFFECTIONS
-4.704987	AFFECTIVE
-4.704987	AFFECTS
-4.704987	AFFETTATORE
-4.704987	AFFIDAVIT
-4.704987	AFFINITIES
-4.704987	AFFINITY
-4.704987	AFFIRM
-4.704987	AFFIRMATION
-4.704987	AFFIRMATIVE
-4.704987	AFFIRMATIVELY
-4.704987	AFFIRMATORY
-4.704987	AFFIRMED
-4.704987	AFFIRMS
-4.704987	AFFIXED
-4.704987	AFFLICT
-4.704987	AFFLICTED
-4.704987	AFFLICTING
-4.704987	AFFLICTION
-4.704987	AFFLICTIONS
-4.704987	AFFLICTS
-4.704987	AFFLUENCE
-4.704987	AFFLUENT
-4.704987	AFFLUX
-4.704987	AFFORD
-4.704987	AFFORDED
-4.704987	AFFORDING
-4.704987	AFFORDS
-4.704987	AFFRIGHT
-4.704987	AFFRIGHTED
-4.704987	AFFRONT
-4.704987	AFFRONTED
-4.704987	AFGHAN
-4.704987	AFIRE
-4.704987	AFLAME
-4.704987	AFLOAT
-4.704987	AFOOT
-4.704987	AFORE
-4.704987	AFORESAID
-4.704987	AFRAID
-4.704987	AFRESH
-4.704987	AFRIC'S
-4.704987	AFRICA
-4.704987	AFRICAN
-4.704987	AFRICANS
-4.704987	AFRIKANDER
-4.704987	AFRITES
-4.704987	AFT
-4.704987	AFTAH
-4.704987	AFTER
-4.704987	AFTERDECK
-4.704987	AFTERGLOW
-4.704987	AFTERMATH
-4.704987	AFTERMATHS
-4.704987	AFTERNOON
-4.704987	AFTERNOON'S
-4.704987	AFTERNOONS
-4.704987	AFTERTHOUGHT
-4.704987	AFTERWARD
-4.704987	AFTERWARDS
-4.704987	AFTHER
-4.704987	AFY
-4.704987	AFY'S
-4.704987	AGAIN
-4.704987	AGAINST
-4.704987	AGAMEMNON
-4.704987	AGAMENTICUS
-4.704987	AGATHA
-4.704987	AGE
-4.704987	AGED
-4.704987	AGEETUK
-4.704987	AGENCIES
-4.704987	AGENCY
-4.704987	AGENT
-4.704987	AGENT'S
-4.704987	AGENTS
-4.704987	AGERS
-4.704987	AGES
-4.704987	AGGRAVATED
-4.704987	AGGRAVATION
-4.704987	AGGREGATE
-4.704987	AGGREGATED
-4.704987	AGGREGATION
-4.704987	AGGRESSIVE
-4.704987	AGGRESSIVELY
-4.704987	AGGRESSIVENESS
-4.704987	AGGRESSORS
-4.704987	AGGRIEVED
-4.704987	AGHAST
-4.704987	AGILE
-4.704987	AGILITY
-4.704987	AGINCOURT
-4.704987	AGINT
-4.704987	AGITATE
-4.704987	AGITATED
-4.704987	AGITATION
-4.704987	AGITATORS
-4.704987	AGLOW
-4.704987	AGNES
-4.704987	AGNOSTIC
-4.704987	AGO
-4.704987	AGONIES
-4.704987	AGONISING
-4.704987	AGONIZED
-4.704987	AGONIZING
-4.704987	AGONY
-4.704987	AGOSTINO
-4.704987	AGREE
-4.704987	AGREEABLE
-4.704987	AGREEABLY
-4.704987	AGREED
-4.704987	AGREEING
-4.704987	AGREEMENT
-4.704987	AGREEMENTS
-4.704987	AGREES
-4.704987	AGRICULTURAL
-4.704987	AGRICULTURE
-4.704987	AGRICULTURIST
-4.704987	AGRICULTURISTS
-4.704987	AGRIVAINE
-4.704987	AGROUND
-4.704987	AGUARDIENTE
-4.704987	AH
-4.704987	AHA
-4.704987	AHAB
-4.704987	AHEAD
-4.704987	AHHH
-4.704987	AHIJAH
-4.704987	AHOLD
-4.704987	AID
-4.704987	AIDE
-4.704987	AIDED
-4.704987	AIDING
-4.704987	AIDS
-4.704987	AIL
-4.704987	AILMENT
-4.704987	AILMENTS
-4.704987	AILS
-4.704987	AIM
-4.704987	AIME
-4.704987	AIMED
-4.704987	AIMING
-4.704987	AIMLESS
-4.704987	AIMLESSLY
-4.704987	AIMS
-4.704987	AIN
-4.704987	AIN'T
-4.704987	AINT
-4.704987	AIR
-4.704987	AIRCRAFT
-4.704987	AIRILY
-4.704987	AIRLESS
-4.704987	AIRMEN
-4.704987	AIRS
-4.704987	AIRSHIP
-4.704987	AIRSHIPS
-4.704987	AIRTH
-4.704987	AIRY
-4.704987	AISLE
-4.704987	AISLES
-4.704987	AISY
-4.704987	AJAR
-4.704987	AJAX
-4.704987	AKHABBU
-4.704987	AKHIABABA
-4.704987	AKHUNI
-4.704987	AKIMBO
-4.704987	AKIN
-4.704987	AKKADIAN
-4.704987	AL
-4.704987	ALABAMA
-4.704987	ALABASTER
-4.704987	ALACRITY
-4.704987	ALADDIN
-4.704987	ALARIC
-4.704987	ALARM
-4.704987	ALARMED
-4.704987	ALARMING
-4.704987	ALARMS
-4.704987	ALARUM
-4.704987	ALAS
-4.704987	ALASKA
-4.704987	ALASKAN
-4.704987	ALATRI
-4.704987	ALBA
-4.704987	ALBAN'S
-4.704987	ALBANIAN
-4.704987	ALBANY
-4.704987	ALBATROSS
-4.704987	ALBEIT
-4.704987	ALBERT
-4.704987	ALBERT'S
-4.704987	ALBION
-4.704987	ALBUM
-4.704987	ALCESTIS
-4.704987	ALCHEMIST
-4.704987	ALCHEMY
-4.704987	ALCOHOL
-4.704987	ALCOTT
-4.704987	ALCOVE
-4.704987	ALCOVES
-4.704987	ALDENHAM
-4.704987	ALDENHAM'S
-4.704987	ALDER
-4.704987	ALDERMAN
-4.704987	ALDERMEN
-4.704987	ALDERS
-4.704987	ALE
-4.704987	ALEC
-4.704987	ALEC'S
-4.704987	ALEMBIC
-4.704987	ALEPH
-4.704987	ALEPPO
-4.704987	ALERT
-4.704987	ALERTED
-4.704987	ALERTLY
-4.704987	ALEUTIAN
-4.704987	ALEXANDER
-4.704987	ALEXANDER'S
-4.704987	ALEXANDRE
-4.704987	ALEXANDRIA
-4.704987	ALEXANDRIAN
-4.704987	ALEXANDROVITCH
-4.704987	ALEXEY
-4.704987	ALEXIS
-4.704987	ALF
-4.704987	ALFORJAS
-4.704987	ALFRED
-4.704987	ALGAE
-4.704987	ALGEBRA
-4.704987	ALGEBRAIC
-4.704987	ALGONKIN
-4.704987	ALGONQUIN
-4.704987	ALGONQUINS
-4.704987	ALI
-4.704987	ALIAKHIN
-4.704987	ALIAS
-4.704987	ALIBI
-4.704987	ALICE
-4.704987	ALIEN
-4.704987	ALIENATE
-4.704987	ALIENS
-4.704987	ALIGHT
-4.704987	ALIGHTED
-4.704987	ALIGHTING
-4.704987	ALIGNMENT
-4.704987	ALIKE
-4.704987	ALIONA
-4.704987	ALIQUID
-4.704987	ALIVE
-4.704987	ALKALI
-4.704987	ALKALOIDS
-4.704987	ALL
-4.704987	ALL'S
-4.704987	ALLAH
-4.704987	ALLAN
-4.704987	ALLAY
-4.704987	ALLAYED
-4.704987	ALLAYS
-4.704987	ALLEGE
-4.704987	ALLEGED
-4.704987	ALLEGIANCE
-4.704987	ALLEGORICAL
-4.704987	ALLEGORIES
-4.704987	ALLEGORY
-4.704987	ALLEN
-4.704987	ALLEN'S
-4.704987	ALLENS
-4.704987	ALLERS
-4.704987	ALLEVIATE
-4.704987	ALLEVIATION
-4.704987	ALLEY
-4.704987	ALLEYS
-4.704987	ALLIANCE
-4.704987	ALLIANCES
-4.704987	ALLIBONE
-4.704987	ALLIED
-4.704987	ALLIES
-4.704987	ALLIGATORS
-4.704987	ALLINGTON
-4.704987	ALLISON
-4.704987	ALLIUMS
-4.704987	ALLOT
-4.704987	ALLOTTED
-4.704987	ALLOW
-4.704987	ALLOW'D
-4.704987	ALLOWABLE
-4.704987	ALLOWANCE
-4.704987	ALLOWANCES
-4.704987	ALLOWAY
-4.704987	ALLOWED
-4.704987	ALLOWING
-4.704987	ALLOWS
-4.704987	ALLOY
-4.704987	ALLSORT'S
-4.704987	ALLSORTS
-4.704987	ALLUDE
-4.704987	ALLUDED
-4.704987	ALLUDES
-4.704987	ALLUDING
-4.704987	ALLURE
-4.704987	ALLURED
-4.704987	ALLURING
-4.704987	ALLUSION
-4.704987	ALLUSIONS
-4.704987	ALLY
-4.704987	ALMA
-4.704987	ALMANAC
-4.704987	ALMANACK'
-4.704987	ALMIGHTY
-4.704987	ALMIRA'S
-4.704987	ALMONDS
-4.704987	ALMOST
-4.704987	ALMS
-4.704987	ALMSHOUSE
-4.704987	ALOFT
-4.704987	ALONE
-4.704987	ALONG
-4.704987	ALONGSIDE
-4.704987	ALOOF
-4.704987	ALOUD
-4.704987	ALPATYCH
-4.704987	ALPHABET
-4.704987	ALPINE
-4.704987	ALPS
-4.704987	ALREADY
-4.704987	ALSO
-4.704987	ALTAR
-4.704987	ALTARS
-4.704987	ALTER
-4.704987	ALTERATION
-4.704987	ALTERATIONS
-4.704987	ALTERATIVES
-4.704987	ALTERCATION
-4.704987	ALTERED
-4.704987	ALTERING
-4.704987	ALTERNATE
-4.704987	ALTERNATELY
-4.704987	ALTERNATING
-4.704987	ALTERNATIONS
-4.704987	ALTERNATIVE
-4.704987	ALTERNATIVES
-4.704987	ALTHESA
-4.704987	ALTHOUGH
-4.704987	ALTITUDE
-4.704987	ALTOGETHER
-4.704987	ALUMINIUM
-4.704987	ALUMINUM
-4.704987	ALWAYS
-4.704987	AM
-4.704987	AMABEL
-4.704987	AMABEL'S
-4.704987	AMALFI
-4.704987	AMALGAMATE
-4.704987	AMALGAMATED
-4.704987	AMALGAMATING
-4.704987	AMANUENSIS
-4.704987	AMASINE
-4.704987	AMASSED
-4.704987	AMASSING
-4.704987	AMATEUR
-4.704987	AMATEURISHNESS
-4.704987	AMATEURS
-4.704987	AMAZE
-4.704987	AMAZED
-4.704987	AMAZEMENT
-4.704987	AMAZIN
-4.704987	AMAZING
-4.704987	AMAZINGLY
-4.704987	AMAZON
-4.704987	AMAZONS
-4.704987	AMBASSADOR
-4.704987	AMBASSADORS
-4.704987	AMBASSADORSHIP
-4.704987	AMBER
-4.704987	AMBERING
-4.704987	AMBIGUITY
-4.704987	AMBIGUOUS
-4.704987	AMBIGUOUSLY
-4.704987	AMBIORIX
-4.704987	AMBITION
-4.704987	AMBITIONS
-4.704987	AMBITIOUS
-4.704987	AMBITIOUSLY
-4.704987	AMBLE
-4.704987	AMBLED
-4.704987	AMBOINA
-4.704987	AMBROSIA
-4.704987	AMBROSIAL
-4.704987	AMBULANCE
-4.704987	AMBUSH
-4.704987	AMBUSHED
-4.704987	AMBUSHES
-4.704987	AMEER
-4.704987	AMELIA
-4.704987	AMELIA'S
-4.704987	AMELIORATING
-4.704987	AMEN
-4.704987	AMENABLE
-4.704987	AMEND
-4.704987	AMENDMENT
-4.704987	AMENDS
-4.704987	AMERI
-4.704987	AMERICA
-4.704987	AMERICA'S
-4.704987	AMERICAN
-4.704987	AMERICAN'S
-4.704987	AMERICANISM
-4.704987	AMERICANS
-4.704987	AMETHYSTS
-4.704987	AMHERST
-4.704987	AMIABLE
-4.704987	AMIABLY
-4.704987	AMICABLE
-4.704987	AMICABLY
-4.704987	AMID
-4.704987	AMIDSHIPS
-4.704987	AMIDST
-4.704987	AMIN
-4.704987	AMISS
-4.704987	AMISTAD
-4.704987	AMITY
-4.704987	AMMERNITION
-4.704987	AMMONIA
-4.704987	AMMUNITION
-4.704987	AMNESIA
-4.704987	AMNESTY
-4.704987	AMONG
-4.704987	AMONGST
-4.704987	AMONTILLADO
-4.704987	AMORIUM
-4.704987	AMOROUS
-4.704987	AMORRHITES
-4.704987	AMORY
-4.704987	AMOS
-4.704987	AMOUNT
-4.704987	AMOUNTED
-4.704987	AMOUNTING
-4.704987	AMOUNTS
-4.704987	AMOURS
-4.704987	AMPHICTYONS
-4.704987	AMPHIOXUS
-4.704987	AMPHITHEATRAL
-4.704987	AMPHITHEATRE
-4.704987	AMPHITHEATRES
-4.704987	AMPHITHEATRICAL
-4.704987	AMPLE
-4.704987	AMPLIFICATION
-4.704987	AMPLIFIED
-4.704987	AMPLY
-4.704987	AMPUTATING
-4.704987	AMSTERDAM
-4.704987	AMU
-4.704987	AMUCK
-4.704987	AMUSE
-4.704987	AMUSED
-4.704987	AMUSEMENT
-4.704987	AMUSEMENTS
-4.704987	AMUSING
-4.704987	AN
-4.704987	AN'
-4.704987	AN'T
-4.704987	ANACHARSIS
-4.704987	ANACHRONISM
-4.704987	ANALOGOUS
-4.704987	ANALOGUES
-4.704987	ANALOGY
-4.704987	ANALYSING
-4.704987	ANALYSIS
-4.704987	ANALYTIC
-4.704987	ANALYZED
-4.704987	ANALYZING
-4.704987	ANARCHICAL
-4.704987	ANARCHY
-4.704987	ANASTASIA
-4.704987	ANATHEMA
-4.704987	ANATHEMAS
-4.704987	ANATOLIC
-4.704987	ANATOMICALLY
-4.704987	ANATOMIST
-4.704987	ANAURUS
-4.704987	ANCASTER
-4.704987	ANCESTOR
-4.704987	ANCESTORS
-4.704987	ANCESTRAL
-4.704987	ANCESTRALLY
-4.704987	ANCESTRY
-4.704987	ANCHISES
-4.704987	ANCHOR
-4.704987	ANCHORAGE
-4.704987	ANCHORED
-4.704987	ANCHORS
-4.704987	ANCHOVIES
-4.704987	ANCHOVY
-4.704987	ANCIENT
-4.704987	ANCIENTLY
-4.704987	ANCIENTS
-4.704987	AND
-4.704987	ANDAMAN
-4.704987	ANDANTE
-4.704987	ANDERSON
-4.704987	ANDOVER
-4.704987	ANDRE
-4.704987	ANDREA
-4.704987	ANDREA'S
-4.704987	ANDREAE
-4.704987	ANDREAS
-4.704987	ANDREW
-4.704987	ANDREW'S
-4.704987	ANDREWS
-4.704987	ANDREWS'S
-4.704987	ANDS
-4.704987	ANDY
-4.704987	ANECDOTE
-4.704987	ANECDOTES
-4.704987	ANEMIC
-4.704987	ANEROID
-4.704987	ANEROIDS
-4.704987	ANEW
-4.704987	ANGE
-4.704987	ANGEL
-4.704987	ANGELES
-4.704987	ANGELIC
-4.704987	ANGELIQUE
-4.704987	ANGELO
-4.704987	ANGELS
-4.704987	ANGER
-4.704987	ANGERED
-4.704987	ANGERS
-4.704987	ANGLE
-4.704987	ANGLED
-4.704987	ANGLES
-4.704987	ANGLICAN
-4.704987	ANGLING
-4.704987	ANGLO
-4.704987	ANGOLA
-4.704987	ANGRILY
-4.704987	ANGRY
-4.704987	ANGUISH
-4.704987	ANGULAR
-4.704987	ANIMADVERTED
-4.704987	ANIMAL
-4.704987	ANIMAL'S
-4.704987	ANIMALS
-4.704987	ANIMATE
-4.704987	ANIMATED
-4.704987	ANIMATION
-4.704987	ANIMISTIC
-4.704987	ANIMO
-4.704987	ANIMOSITY
-4.704987	ANISEED
-4.704987	ANITA
-4.704987	ANITA'S
-4.704987	ANJITSU
-4.704987	ANJOU
-4.704987	ANKLE
-4.704987	ANKLES
-4.704987	ANKLET
-4.704987	ANKLETS
-4.704987	ANN
-4.704987	ANNA
-4.704987	ANNABEL
-4.704987	ANNALS
-4.704987	ANNAMITE
-4.704987	ANNE
-4.704987	ANNE'S
-4.704987	ANNEALED
-4.704987	ANNETTA
-4.704987	ANNETTE
-4.704987	ANNEX
-4.704987	ANNEX'D
-4.704987	ANNEXED
-4.704987	ANNIE
-4.704987	ANNIE'S
-4.704987	ANNIHILATE
-4.704987	ANNIHILATED
-4.704987	ANNIHILATES
-4.704987	ANNIHILATION
-4.704987	ANNIVERSARY
-4.704987	ANNOUNCE
-4.704987	ANNOUNCED
-4.704987	ANNOUNCEMENT
-4.704987	ANNOUNCEMENTS
-4.704987	ANNOUNCING
-4.704987	ANNOY
-4.704987	ANNOYANCE
-4.704987	ANNOYANCES
-4.704987	ANNOYED
-4.704987	ANNOYING
-4.704987	ANNOYS
-4.704987	ANNUAL
-4.704987	ANNUALLY
-4.704987	ANNUITIES
-4.704987	ANNUITY
-4.704987	ANNULLING
-4.704987	ANNUM
-4.704987	ANNUNCIATION
-4.704987	ANOINTED
-4.704987	ANOMALIES
-4.704987	ANOMALOUS
-4.704987	ANOMALY
-4.704987	ANON
-4.704987	ANONYMOUS
-4.704987	ANOPLOTHERIA
-4.704987	ANORAK
-4.704987	ANORAKS
-4.704987	ANOTHER
-4.704987	ANOTHER'S
-4.704987	ANSON
-4.704987	ANSWER
-4.704987	ANSWERABLE
-4.704987	ANSWERE
-4.704987	ANSWERED
-4.704987	ANSWERER
-4.704987	ANSWERING
-4.704987	ANSWERS
-4.704987	ANT
-4.704987	ANT'S
-4.704987	ANTAEUS
-4.704987	ANTAGONISM
-4.704987	ANTAGONISMS
-4.704987	ANTAGONIST
-4.704987	ANTAGONISTIC
-4.704987	ANTAGONISTS
-4.704987	ANTARCTIC
-4.704987	ANTE
-4.704987	ANTECEDENTS
-4.704987	ANTECHAMBER
-4.704987	ANTELOPE
-4.704987	ANTELOPES
-4.704987	ANTENNAE
-4.704987	ANTHONY
-4.704987	ANTHONY'S
-4.704987	ANTHROPOMORPHIC
-4.704987	ANTI
-4.704987	ANTICHRIST
-4.704987	ANTICIPATED
-4.704987	ANTICIPATES
-4.704987	ANTICIPATING
-4.704987	ANTICIPATION
-4.704987	ANTICIPATIONS
-4.704987	ANTICS
-4.704987	ANTIDOTE
-4.704987	ANTIES
-4.704987	ANTIETAM
-4.704987	ANTIGONUS
-4.704987	ANTIMACASSAR
-4.704987	ANTIMONY
-4.704987	ANTINOUS
-4.704987	ANTIOCH
-4.704987	ANTIPATHETIC
-4.704987	ANTIPATHY
-4.704987	ANTIPHLOGISTICS
-4.704987	ANTIQUARIAN
-4.704987	ANTIQUARIES
-4.704987	ANTIQUATED
-4.704987	ANTIQUE
-4.704987	ANTIQUITY
-4.704987	ANTISOCIAL
-4.704987	ANTITHESIS
-4.704987	ANTLERED
-4.704987	ANTLERS
-4.704987	ANTOINE
-4.704987	ANTON
-4.704987	ANTONIA
-4.704987	ANTONINUS
-4.704987	ANTONIO
-4.704987	ANTONITCH
-4.704987	ANTONY
-4.704987	ANTS
-4.704987	ANTUNG
-4.704987	ANTWERP
-4.704987	ANVIL
-4.704987	ANXIETIES
-4.704987	ANXIETY
-4.704987	ANXIOUS
-4.704987	ANXIOUSLY
-4.704987	ANY
-4.704987	ANYBODY
-4.704987	ANYBODY'S
-4.704987	ANYHOW
-4.704987	ANYONE
-4.704987	ANYONE'S
-4.704987	ANYTHING
-4.704987	ANYWAY
-4.704987	ANYWHERE
-4.704987	APACE
-4.704987	APACHE
-4.704987	APAMEA
-4.704987	APAMIA
-4.704987	APART
-4.704987	APARTMENT
-4.704987	APARTMENTS
-4.704987	APATHETICALLY
-4.704987	APATHY
-4.704987	APE
-4.704987	APE'S
-4.704987	APENNINES
-4.704987	APENNY
-4.704987	APERTURE
-4.704987	APERTURES
-4.704987	APES
-4.704987	APEX
-4.704987	APHORISMS
-4.704987	APIECE
-4.704987	APING
-4.704987	APLENTY
-4.704987	APLI
-4.704987	APOLLINARIS
-4.704987	APOLLO
-4.704987	APOLLO'S
-4.704987	APOLLON
-4.704987	APOLLONIA
-4.704987	APOLOGETIC
-4.704987	APOLOGETICALLY
-4.704987	APOLOGIES
-4.704987	APOLOGISE
-4.704987	APOLOGISED
-4.704987	APOLOGIZE
-4.704987	APOLOGIZED
-4.704987	APOLOGIZES
-4.704987	APOLOGY
-4.704987	APOPLEXY
-4.704987	APOSTLE
-4.704987	APOSTOLIC
-4.704987	APOSTOLICAL
-4.704987	APOSTROPHE
-4.704987	APOSTROPHIZED
-4.704987	APOSTROPHIZING
-4.704987	APOTHECARIES
-4.704987	APOTHECARY
-4.704987	APOTHEOSES
-4.704987	APOTHEOSIS
-4.704987	APPALACHE
-4.704987	APPALLED
-4.704987	APPALLING
-4.704987	APPALLINGLY
-4.704987	APPARATUS
-4.704987	APPAREL
-4.704987	APPARENT
-4.704987	APPARENTLY
-4.704987	APPARITION
-4.704987	APPARITIONS
-4.704987	APPEAL
-4.704987	APPEALED
-4.704987	APPEALING
-4.704987	APPEALS
-4.704987	APPEAR
-4.704987	APPEARANCE
-4.704987	APPEARANCES
-4.704987	APPEARED
-4.704987	APPEAREST
-4.704987	APPEARING
-4.704987	APPEARS
-4.704987	APPEASE
-4.704987	APPEASED
-4.704987	APPEASING
-4.704987	APPELLATION
-4.704987	APPELLATIONS
-4.704987	APPENDAGE
-4.704987	APPENDICITIS
-4.704987	APPENDIX
-4.704987	APPERTAIN
-4.704987	APPERTAINING
-4.704987	APPERTAINS
-4.704987	APPETISING
-4.704987	APPETITE
-4.704987	APPETITES
-4.704987	APPETIZER
-4.704987	APPETIZERS
-4.704987	APPLAUD
-4.704987	APPLAUDED
-4.704987	APPLAUDING
-4.704987	APPLAUSE
-4.704987	APPLE
-4.704987	APPLES
-4.704987	APPLIANCES
-4.704987	APPLICABLE
-4.704987	APPLICANT
-4.704987	APPLICATION
-4.704987	APPLICATIONS
-4.704987	APPLIED
-4.704987	APPLIES
-4.704987	APPLY
-4.704987	APPLYING
-4.704987	APPOINT
-4.704987	APPOINTED
-4.704987	APPOINTEE
-4.704987	APPOINTING
-4.704987	APPOINTMENT
-4.704987	APPOINTMENTS
-4.704987	APPOMATTOX
-4.704987	APPORTION
-4.704987	APPORTIONED
-4.704987	APPOSITELY
-4.704987	APPRAISE
-4.704987	APPRAISING
-4.704987	APPRECIABLE
-4.704987	APPRECIABLY
-4.704987	APPRECIATE
-4.704987	APPRECIATED
-4.704987	APPRECIATING
-4.704987	APPRECIATION
-4.704987	APPRECIATIVE
-4.704987	APPREHEND
-4.704987	APPREHENDED
-4.704987	APPREHENSION
-4.704987	APPREHENSIONS
-4.704987	APPREHENSIVE
-4.704987	APPRENTICE
-4.704987	APPRENTICED
-4.704987	APPRENTICES
-4.704987	APPRENTICESHIP
-4.704987	APPRIZED
-4.704987	APPROACH
-4.704987	APPROACHED
-4.704987	APPROACHES
-4.704987	APPROACHING
-4.704987	APPROBATION
-4.704987	APPROPRIATE
-4.704987	APPROPRIATED
-4.704987	APPROPRIATELY
-4.704987	APPROPRIATIONS
-4.704987	APPROVAL
-4.704987	APPROVE
-4.704987	APPROVED
-4.704987	APPROVING
-4.704987	APPROVINGLY
-4.704987	APPROXIMATING
-4.704987	APPROXIMATION
-4.704987	APPURTENANCES
-4.704987	APPY
-4.704987	APRIL
-4.704987	APRILLE
-4.704987	APRON
-4.704987	APRONED
-4.704987	APROPOS
-4.704987	APSIMARUS
-4.704987	APT
-4.704987	APTITUDE
-4.704987	APTITUDES
-4.704987	APTLY
-4.704987	APULEIUS
-4.704987	AQUATIC
-4.704987	AQUEDUCT
-4.704987	ARAB
-4.704987	ARABESQUES
-4.704987	ARABIA
-4.704987	ARABIAN
-4.704987	ARABIANS
-4.704987	ARABIC
-4.704987	ARABIN
-4.704987	ARABLE
-4.704987	ARABS
-4.704987	ARABY
-4.704987	ARAGO
-4.704987	ARAIGNEE
-4.704987	ARAMAEAN
-4.704987	ARAMAEANS
-4.704987	ARAMINTA
-4.704987	ARAMIS
-4.704987	ARAPAHOE
-4.704987	ARBELA
-4.704987	ARBITER
-4.704987	ARBITRARILY
-4.704987	ARBITRARY
-4.704987	ARBITRATE
-4.704987	ARBITRATION
-4.704987	ARBITRATOR
-4.704987	ARBOR
-4.704987	ARBORED
-4.704987	ARBOUR
-4.704987	ARBRE
-4.704987	ARBUTUS
-4.704987	ARC
-4.704987	ARCA
-4.704987	ARCADE
-4.704987	ARCADIA
-4.704987	ARCADIAN
-4.704987	ARCAS
-4.704987	ARCH
-4.704987	ARCHAEOLOGISTS
-4.704987	ARCHAEOLOGY
-4.704987	ARCHAEOTHERIUM
-4.704987	ARCHAIC
-4.704987	ARCHANGEL'S
-4.704987	ARCHBISHOP
-4.704987	ARCHED
-4.704987	ARCHER
-4.704987	ARCHERS
-4.704987	ARCHERY
-4.704987	ARCHES
-4.704987	ARCHIBALD
-4.704987	ARCHIE
-4.704987	ARCHINGS
-4.704987	ARCHITECT
-4.704987	ARCHITECTS
-4.704987	ARCHITECTURAL
-4.704987	ARCHITECTURALLY
-4.704987	ARCHITECTURE
-4.704987	ARCHITRAVE
-4.704987	ARCHIVES
-4.704987	ARCHLY
-4.704987	ARCHNESS
-4.704987	ARCHWAY
-4.704987	ARCHWAYS
-4.704987	ARCTIC
-4.704987	ARDAN
-4.704987	ARDENT
-4.704987	ARDENTLY
-4.704987	ARDINGHI
-4.704987	ARDLEY
-4.704987	ARDOR
-4.704987	ARDOUR
-4.704987	ARDUOUS
-4.704987	ARE
-4.704987	AREA
-4.704987	AREN'T
-4.704987	ARENA
-4.704987	ARENTSCHILD'S
-4.704987	ARGIRASPIDES
-4.704987	ARGO
-4.704987	ARGONAUTS
-4.704987	ARGUABLE
-4.704987	ARGUE
-4.704987	ARGUED
-4.704987	ARGUES
-4.704987	ARGUING
-4.704987	ARGUMENT
-4.704987	ARGUMENTATION
-4.704987	ARGUMENTATIVE
-4.704987	ARGUMENTATIVELY
-4.704987	ARGUMENTS
-4.704987	ARGUS
-4.704987	ARGYLE
-4.704987	ARGYLESHIRE
-4.704987	ARID
-4.704987	ARIGHT
-4.704987	ARIOVISTUS
-4.704987	ARISE
-4.704987	ARISEN
-4.704987	ARISES
-4.704987	ARISING
-4.704987	ARISTOBULUS
-4.704987	ARISTOCRACY
-4.704987	ARISTOCRAT
-4.704987	ARISTOCRATIC
-4.704987	ARISTOGITON
-4.704987	ARISTOPHANES
-4.704987	ARISTOPHANIC
-4.704987	ARISTOTLE
-4.704987	ARITHMETIC
-4.704987	ARIUS
-4.704987	ARIZONA
-4.704987	ARLINGTON
-4.704987	ARM
-4.704987	ARM'S
-4.704987	ARMADA
-4.704987	ARMAMENT
-4.704987	ARMAND
-4.704987	ARMAND'S
-4.704987	ARMATURE
-4.704987	ARMCHAIR
-4.704987	ARMCHAIRS
-4.704987	ARMED
-4.704987	ARMENIA
-4.704987	ARMENIANS
-4.704987	ARMFUL
-4.704987	ARMIES
-4.704987	ARMING
-4.704987	ARMISTICE
-4.704987	ARMLET
-4.704987	ARMLETS
-4.704987	ARMOR
-4.704987	ARMORED
-4.704987	ARMORY
-4.704987	ARMOUR
-4.704987	ARMOURER
-4.704987	ARMOURER'S
-4.704987	ARMPITS
-4.704987	ARMS
-4.704987	ARMY
-4.704987	ARMY'S
-4.704987	ARNEIL
-4.704987	ARNICA
-4.704987	ARNOLD
-4.704987	ARNOLD'S
-4.704987	ARNOTT
-4.704987	ARNOULD
-4.704987	ARNOULD'S
-4.704987	ARNWOOD
-4.704987	AROMA
-4.704987	AROMATIC
-4.704987	ARONNAX
-4.704987	AROSE
-4.704987	AROUND
-4.704987	AROUSE
-4.704987	AROUSED
-4.704987	AROUSES
-4.704987	AROUSING
-4.704987	ARPEGGIO
-4.704987	ARQUEBUSIER
-4.704987	ARQUEBUSIERS
-4.704987	ARRAGON
-4.704987	ARRAIGNED
-4.704987	ARRANGE
-4.704987	ARRANGED
-4.704987	ARRANGEMENT
-4.704987	ARRANGEMENTS
-4.704987	ARRANGES
-4.704987	ARRANGING
-4.704987	ARRAY
-4.704987	ARRAYED
-4.704987	ARRAYS
-4.704987	ARREST
-4.704987	ARRESTED
-4.704987	ARRESTING
-4.704987	ARRESTS
-4.704987	ARRIGUCCI
-4.704987	ARRIVAL
-4.704987	ARRIVALS
-4.704987	ARRIVE
-4.704987	ARRIVED
-4.704987	ARRIVES
-4.704987	ARRIVING
-4.704987	ARROGANCE
-4.704987	ARROGANT
-4.704987	ARROGATE
-4.704987	ARROW
-4.704987	ARROWED
-4.704987	ARROWPOINT
-4.704987	ARROWPOINTS
-4.704987	ARROWS
-4.704987	ARROWY
-4.704987	ARRYSTOCRACY
-4.704987	ARS
-4.704987	ARSENAL
-4.704987	ARSENALS
-4.704987	ARSENIC
-4.704987	ART
-4.704987	ART'S
-4.704987	ARTA
-4.704987	ARTEKIL
-4.704987	ARTEM
-4.704987	ARTEMUS
-4.704987	ARTER
-4.704987	ARTERIA
-4.704987	ARTERIAL
-4.704987	ARTERIES
-4.704987	ARTERIOSA
-4.704987	ARTERY
-4.704987	ARTESIAN
-4.704987	ARTEVELDE
-4.704987	ARTFUL
-4.704987	ARTFULLY
-4.704987	ARTHUR
-4.704987	ARTHUR'S
-4.704987	ARTIBUS
-4.704987	ARTICLE
-4.704987	ARTICLES
-4.704987	ARTICULATE
-4.704987	ARTIFICES
-4.704987	ARTIFICIAL
-4.704987	ARTIFICIALLY
-4.704987	ARTILLERY
-4.704987	ARTISAN
-4.704987	ARTISAN'S
-4.704987	ARTISANS
-4.704987	ARTIST
-4.704987	ARTIST'S
-4.704987	ARTISTIC
-4.704987	ARTISTICAL
-4.704987	ARTISTICALLY
-4.704987	ARTISTS
-4.704987	ARTLESS
-4.704987	ARTLESSLY
-4.704987	ARTOIS
-4.704987	ARTS
-4.704987	ARUJI
-4.704987	ARUNDEL
-4.704987	ARVID
-4.704987	ARZA
-4.704987	AS
-4.704987	ASA
-4.704987	ASAKUSA
-4.704987	ASANO
-4.704987	ASBESTOS
-4.704987	ASCEND
-4.704987	ASCENDANCY
-4.704987	ASCENDANT
-4.704987	ASCENDED
-4.704987	ASCENDING
-4.704987	ASCENSION
-4.704987	ASCENT
-4.704987	ASCENTS
-4.704987	ASCERTAIN
-4.704987	ASCERTAINED
-4.704987	ASCERTAINING
-4.704987	ASCETICISM
-4.704987	ASCRIBE
-4.704987	ASCRIBED
-4.704987	ASCRIBES
-4.704987	ASCRIBING
-4.704987	ASGARD
-4.704987	ASGARD'S
-4.704987	ASH
-4.704987	ASHAMED
-4.704987	ASHEN
-4.704987	ASHES
-4.704987	ASHIEL
-4.704987	ASHIEL'S
-4.704987	ASHLAND
-4.704987	ASHLEY
-4.704987	ASHORE
-4.704987	ASHTON
-4.704987	ASHUR
-4.704987	ASHY
-4.704987	ASIA
-4.704987	ASIANS
-4.704987	ASIATIC
-4.704987	ASIDE
-4.704987	ASK
-4.704987	ASKED
-4.704987	ASKER
-4.704987	ASKEST
-4.704987	ASKETH
-4.704987	ASKEW
-4.704987	ASKIN
-4.704987	ASKING
-4.704987	ASKS
-4.704987	ASLANT
-4.704987	ASLEEP
-4.704987	ASP
-4.704987	ASPECT
-4.704987	ASPECTS
-4.704987	ASPEN
-4.704987	ASPENS
-4.704987	ASPERITY
-4.704987	ASPERSIONS
-4.704987	ASPHALT
-4.704987	ASPHYXIATED
-4.704987	ASPHYXIATION
-4.704987	ASPIRANT
-4.704987	ASPIRANTS
-4.704987	ASPIRATION
-4.704987	ASPIRATIONS
-4.704987	ASPIRE
-4.704987	ASPIRED
-4.704987	ASPIRES
-4.704987	ASPIRING
-4.704987	ASS
-4.704987	ASS'S
-4.704987	ASSAIL
-4.704987	ASSAILANT
-4.704987	ASSAILED
-4.704987	ASSAILS
-4.704987	ASSASSIN
-4.704987	ASSASSINATED
-4.704987	ASSASSINATION
-4.704987	ASSASSINATIONS
-4.704987	ASSASSINS
-4.704987	ASSAULT
-4.704987	ASSAULTED
-4.704987	ASSAULTS
-4.704987	ASSEMBLAGE
-4.704987	ASSEMBLAGES
-4.704987	ASSEMBLE
-4.704987	ASSEMBLED
-4.704987	ASSEMBLIES
-4.704987	ASSEMBLING
-4.704987	ASSEMBLY
-4.704987	ASSENT
-4.704987	ASSENTED
-4.704987	ASSENTING
-4.704987	ASSERT
-4.704987	ASSERTED
-4.704987	ASSERTING
-4.704987	ASSERTION
-4.704987	ASSERTIONS
-4.704987	ASSERTIVE
-4.704987	ASSERTS
-4.704987	ASSES
-4.704987	ASSESSED
-4.704987	ASSESSOR
-4.704987	ASSESSORS
-4.704987	ASSET
-4.704987	ASSEVERATION
-4.704987	ASSIDUOUS
-4.704987	ASSIDUOUSLY
-4.704987	ASSIGN
-4.704987	ASSIGNED
-4.704987	ASSIGNING
-4.704987	ASSIGNS
-4.704987	ASSIMILATED
-4.704987	ASSIMILATION
-4.704987	ASSIST
-4.704987	ASSISTANCE
-4.704987	ASSISTANT
-4.704987	ASSISTANT'S
-4.704987	ASSISTANTS
-4.704987	ASSISTED
-4.704987	ASSISTING
-4.704987	ASSIZES
-4.704987	ASSOCIATE
-4.704987	ASSOCIATED
-4.704987	ASSOCIATES
-4.704987	ASSOCIATING
-4.704987	ASSOCIATION
-4.704987	ASSOCIATIONS
-4.704987	ASSORTED
-4.704987	ASSORTING
-4.704987	ASSORTMENT
-4.704987	ASSUAGED
-4.704987	ASSUME
-4.704987	ASSUMED
-4.704987	ASSUMES
-4.704987	ASSUMING
-4.704987	ASSUMPTION
-4.704987	ASSURANCE
-4.704987	ASSURANCES
-4.704987	ASSURE
-4.704987	ASSURED
-4.704987	ASSUREDLY
-4.704987	ASSURES
-4.704987	ASSURING
-4.704987	ASSYRIA
-4.704987	ASSYRIA'S
-4.704987	ASSYRIAN
-4.704987	ASSYRIANS
-4.704987	AST
-4.704987	ASTARTE
-4.704987	ASTERIUS
-4.704987	ASTERN
-4.704987	ASTHMA
-4.704987	ASTIGMATIC
-4.704987	ASTINA
-4.704987	ASTIR
-4.704987	ASTONISH
-4.704987	ASTONISHED
-4.704987	ASTONISHING
-4.704987	ASTONISHINGLY
-4.704987	ASTONISHMENT
-4.704987	ASTOUNDED
-4.704987	ASTOUNDING
-4.704987	ASTRAKHAN
-4.704987	ASTRAY
-4.704987	ASTRIDE
-4.704987	ASTRINGENTIA
-4.704987	ASTROLOGER
-4.704987	ASTROLOGERS
-4.704987	ASTROLOGY
-4.704987	ASTRONOMER
-4.704987	ASTRONOMY
-4.704987	ASTUTE
-4.704987	ASTUTENESS
-4.704987	ASUNDER
-4.704987	ASYLUM
-4.704987	ASYLUMS
-4.704987	AT
-4.704987	AT'TI
-4.704987	ATAVISTIC
-4.704987	ATCHIEVEMENTS
-4.704987	ATE
-4.704987	ATHALIAH
-4.704987	ATHEIST
-4.704987	ATHENAEUM
-4.704987	ATHENIAN
-4.704987	ATHENS
-4.704987	ATHLETE
-4.704987	ATHLETE'S
-4.704987	ATHLETES
-4.704987	ATHLETIC
-4.704987	ATHLETICS
-4.704987	ATHOL
-4.704987	ATHWART
-4.704987	ATKINSON
-4.704987	ATLANTA
-4.704987	ATLANTIC
-4.704987	ATLAS
-4.704987	ATLASES
-4.704987	ATMOSPHERE
-4.704987	ATMOSPHERES
-4.704987	ATMOSPHERIC
-4.704987	ATOM
-4.704987	ATOMIC
-4.704987	ATOMS
-4.704987	ATONEMENT
-4.704987	ATONING
-4.704987	ATROCIOUS
-4.704987	ATROCITIES
-4.704987	ATROPHIES
-4.704987	ATROPURPUREA
-4.704987	ATTACH
-4.704987	ATTACHED
-4.704987	ATTACHES
-4.704987	ATTACHING
-4.704987	ATTACHMENT
-4.704987	ATTACHMENTS
-4.704987	ATTACK
-4.704987	ATTACKED
-4.704987	ATTACKING
-4.704987	ATTACKS
-4.704987	ATTAIN
-4.704987	ATTAINABLE
-4.704987	ATTAINED
-4.704987	ATTAINING
-4.704987	ATTAINMENT
-4.704987	ATTAINMENTS
-4.704987	ATTEMPT
-4.704987	ATTEMPTED
-4.704987	ATTEMPTING
-4.704987	ATTEMPTS
-4.704987	ATTEND
-4.704987	ATTENDANCE
-4.704987	ATTENDANT
-4.704987	ATTENDANTS
-4.704987	ATTENDED
-4.704987	ATTENDING
-4.704987	ATTENDS
-4.704987	ATTENTION
-4.704987	ATTENTIONS
-4.704987	ATTENTIVE
-4.704987	ATTENTIVELY
-4.704987	ATTESTATIONS
-4.704987	ATTESTED
-4.704987	ATTIC
-4.704987	ATTICAMEGUES
-4.704987	ATTICS
-4.704987	ATTILA
-4.704987	ATTILA'S
-4.704987	ATTIRE
-4.704987	ATTIRED
-4.704987	ATTITUDE
-4.704987	ATTITUDES
-4.704987	ATTORNEY
-4.704987	ATTORNEY'S
-4.704987	ATTRACT
-4.704987	ATTRACTED
-4.704987	ATTRACTING
-4.704987	ATTRACTION
-4.704987	ATTRACTIONS
-4.704987	ATTRACTIVE
-4.704987	ATTRACTS
-4.704987	ATTRIBUTABLE
-4.704987	ATTRIBUTE
-4.704987	ATTRIBUTED
-4.704987	ATTRIBUTES
-4.704987	ATTRIBUTING
-4.704987	ATTUNED
-4.704987	AU
-4.704987	AUBANUS
-4.704987	AUBURN
-4.704987	AUCTION
-4.704987	AUDACIOUS
-4.704987	AUDACIOUSLY
-4.704987	AUDACITY
-4.704987	AUDIBLE
-4.704987	AUDIBLY
-4.704987	AUDIENCE
-4.704987	AUDIENCES
-4.704987	AUDIPHONED
-4.704987	AUDITING
-4.704987	AUDITOR
-4.704987	AUDITORIUM
-4.704987	AUDITORS
-4.704987	AUDREY
-4.704987	AUGHT
-4.704987	AUGMENT
-4.704987	AUGMENTED
-4.704987	AUGMENTING
-4.704987	AUGUR
-4.704987	AUGURED
-4.704987	AUGURING
-4.704987	AUGUST
-4.704987	AUGUSTA
-4.704987	AUGUSTE
-4.704987	AUGUSTINE
-4.704987	AUGUSTINE'S
-4.704987	AUGUSTULUS
-4.704987	AUGUSTUS
-4.704987	AULIC
-4.704987	AUNT
-4.704987	AUNT'S
-4.704987	AUNTS
-4.704987	AUNTY
-4.704987	AURELIUS
-4.704987	AUREOLE
-4.704987	AURICLES
-4.704987	AURICULARIUS
-4.704987	AURORA
-4.704987	AUSPICES
-4.704987	AUSPICIOUS
-4.704987	AUSTEN
-4.704987	AUSTEN'S
-4.704987	AUSTERE
-4.704987	AUSTERELY
-4.704987	AUSTERITY
-4.704987	AUSTERLITZ
-4.704987	AUSTIN
-4.704987	AUSTRALIA
-4.704987	AUSTRALIANS
-4.704987	AUSTRIA
-4.704987	AUTHENTIC
-4.704987	AUTHENTICATED
-4.704987	AUTHENTICITY
-4.704987	AUTHOR
-4.704987	AUTHOR'S
-4.704987	AUTHORITATIVE
-4.704987	AUTHORITIES
-4.704987	AUTHORITY
-4.704987	AUTHORIZATION
-4.704987	AUTHORIZED
-4.704987	AUTHORIZES
-4.704987	AUTHORS
-4.704987	AUTISTIC
-4.704987	AUTO
-4.704987	AUTOBIOGRAPHICAL
-4.704987	AUTOBIOGRAPHY
-4.704987	AUTOGRAPH
-4.704987	AUTOGRAPHS
-4.704987	AUTOMATA
-4.704987	AUTOMATIC
-4.704987	AUTOMATICALLY
-4.704987	AUTOMATICISM
-4.704987	AUTOMATONS
-4.704987	AUTOMOBILE
-4.704987	AUTOSUGGESTION
-4.704987	AUTUMN
-4.704987	AUTUMNAL
-4.704987	AUXILIARIES
-4.704987	AUXILIARY
-4.704987	AV
-4.704987	AVAIL
-4.704987	AVAILABLE
-4.704987	AVAILED
-4.704987	AVAILETH
-4.704987	AVAILING
-4.704987	AVALANCHE
-4.704987	AVALANCHES
-4.704987	AVARICE
-4.704987	AVARICIOUS
-4.704987	AVARS
-4.704987	AVE
-4.704987	AVEN
-4.704987	AVENGE
-4.704987	AVENGED
-4.704987	AVENGER
-4.704987	AVENGING
-4.704987	AVENUE
-4.704987	AVENUES
-4.704987	AVERAGE
-4.704987	AVERRING
-4.704987	AVERSE
-4.704987	AVERSION
-4.704987	AVERSIONS
-4.704987	AVERT
-4.704987	AVERTED
-4.704987	AVIARY
-4.704987	AVIATION
-4.704987	AVIATORS
-4.704987	AVIDITY
-4.704987	AVOCATION
-4.704987	AVOCATIONS
-4.704987	AVOID
-4.704987	AVOIDANCE
-4.704987	AVOIDED
-4.704987	AVOIDING
-4.704987	AVOIDS
-4.704987	AVONLEA
-4.704987	AVOUCHED
-4.704987	AVOWAL
-4.704987	AVOWED
-4.704987	AVOWEDLY
-4.704987	AVOWS
-4.704987	AW
-4.704987	AWAIT
-4.704987	AWAITED
-4.704987	AWAITING
-4.704987	AWAITS
-4.704987	AWAKE
-4.704987	AWAKEN
-4.704987	AWAKENED
-4.704987	AWAKENING
-4.704987	AWAKENINGS
-4.704987	AWAKENS
-4.704987	AWAKING
-4.704987	AWAR
-4.704987	AWARD
-4.704987	AWARDED
-4.704987	AWARE
-4.704987	AWASH
-4.704987	AWAY
-4.704987	AWE
-4.704987	AWED
-4.704987	AWESOME
-4.704987	AWESTRICKEN
-4.704987	AWESTRUCK
-4.704987	AWFUL
-4.704987	AWFULLY
-4.704987	AWFULNESS
-4.704987	AWHILE
-4.704987	AWKWARD
-4.704987	AWKWARDLY
-4.704987	AWKWARDNESS
-4.704987	AWNING
-4.704987	AWNINGS
-4.704987	AWOKE
-4.704987	AWRY
-4.704987	AX
-4.704987	AXE
-4.704987	AXEL
-4.704987	AXES
-4.704987	AXIALLY
-4.704987	AXIOMATIC
-4.704987	AXIOMS
-4.704987	AXIS
-4.704987	AXLETREES
-4.704987	AXTRA
-4.704987	AY
-4.704987	AYALA'S
-4.704987	AYAYUKI
-4.704987	AYE
-4.704987	AYOUB
-4.704987	AYOUB'S
-4.704987	AYRTON
-4.704987	AYRTON'S
-4.704987	AYSCUE
-4.704987	AZOF
-4.704987	AZULEJOS
-4.704987	AZURE
-4.704987	B
-4.704987	B'LIEVE
-4.704987	BA
-4.704987	BAAL
-4.704987	BAASA
-4.704987	BAB
-4.704987	BAB'S
-4.704987	BABA
-4.704987	BABBLES
-4.704987	BABBLING
-4.704987	BABBY
-4.704987	BABE
-4.704987	BABEL
-4.704987	BABES
-4.704987	BABIES
-4.704987	BABUINO
-4.704987	BABY
-4.704987	BABY'S
-4.704987	BABYHOOD
-4.704987	BABYING
-4.704987	BABYLON
-4.704987	BABYLONIA
-4.704987	BABYLONIAN
-4.704987	BABYLONIANS
-4.704987	BABYLONISH
-4.704987	BABYSHIP
-4.704987	BACCALAUREATE
-4.704987	BACCHUS
-4.704987	BACH
-4.704987	BACHELOR
-4.704987	BACHELOR'S
-4.704987	BACHELORS
-4.704987	BACK
-4.704987	BACKACHE
-4.704987	BACKBITER
-4.704987	BACKBONE
-4.704987	BACKED
-4.704987	BACKERS
-4.704987	BACKGAMMON
-4.704987	BACKGROUND
-4.704987	BACKGROUNDS
-4.704987	BACKING
-4.704987	BACKLESS
-4.704987	BACKS
-4.704987	BACKSIDE
-4.704987	BACKSLIDER
-4.704987	BACKSLIDERS
-4.704987	BACKSTAIRS
-4.704987	BACKTALK
-4.704987	BACKWARD
-4.704987	BACKWARDNESS
-4.704987	BACKWARDS
-4.704987	BACKWATER
-4.704987	BACKWOODS
-4.704987	BACKYARD
-4.704987	BACON
-4.704987	BACULUS
-4.704987	BAD
-4.704987	BADE
-4.704987	BADGE
-4.704987	BADGER
-4.704987	BADGER'S
-4.704987	BADGERS
-4.704987	BADLY
-4.704987	BADNESS
-4.704987	BAEDEKERED
-4.704987	BAEDEKERS
-4.704987	BAFFLE
-4.704987	BAFFLED
-4.704987	BAFFLES
-4.704987	BAFFLING
-4.704987	BAG
-4.704987	BAGDAD
-4.704987	BAGGAGE
-4.704987	BAGGAGES
-4.704987	BAGGY
-4.704987	BAGHDAD
-4.704987	BAGPIPES
-4.704987	BAGS
-4.704987	BAGSHAW
-4.704987	BAH
-4.704987	BAI
-4.704987	BAID
-4.704987	BAIL
-4.704987	BAILED
-4.704987	BAILEY
-4.704987	BAILIFF
-4.704987	BAILIFF'S
-4.704987	BAILIFFS
-4.704987	BAIN
-4.704987	BAIRAM
-4.704987	BAIT
-4.704987	BAITED
-4.704987	BAKE
-4.704987	BAKED
-4.704987	BAKER
-4.704987	BAKER'S
-4.704987	BAKERIES
-4.704987	BAKERS
-4.704987	BAKERY
-4.704987	BAKESHOPS
-4.704987	BAKING
-4.704987	BALANCE
-4.704987	BALANCED
-4.704987	BALANCING
-4.704987	BALAT
-4.704987	BALCH
-4.704987	BALCONIES
-4.704987	BALCONY
-4.704987	BALD
-4.704987	BALDOCK
-4.704987	BALDUR
-4.704987	BALDWIN
-4.704987	BALEEN
-4.704987	BALEFUL
-4.704987	BALES
-4.704987	BALFOUR
-4.704987	BALIKH
-4.704987	BALKED
-4.704987	BALKS
-4.704987	BALKY
-4.704987	BALL
-4.704987	BALLAD
-4.704987	BALLADS
-4.704987	BALLAST
-4.704987	BALLASTED
-4.704987	BALLED
-4.704987	BALLET
-4.704987	BALLOON
-4.704987	BALLOONS
-4.704987	BALLROOM
-4.704987	BALLS
-4.704987	BALM
-4.704987	BALMERCHOFFEN
-4.704987	BALMY
-4.704987	BALSAM
-4.704987	BALSAMY
-4.704987	BALTIC
-4.704987	BALTIMORE
-4.704987	BALUSTRADE
-4.704987	BALZAC
-4.704987	BAMBOO
-4.704987	BAN
-4.704987	BANAL
-4.704987	BANALITY
-4.704987	BANANA
-4.704987	BANANAS
-4.704987	BAND
-4.704987	BAND'S
-4.704987	BANDAGE
-4.704987	BANDAGED
-4.704987	BANDAGES
-4.704987	BANDAGING
-4.704987	BANDANAS
-4.704987	BANDBOX
-4.704987	BANDED
-4.704987	BANDIT
-4.704987	BANDIT'S
-4.704987	BANDITS
-4.704987	BANDS
-4.704987	BANG
-4.704987	BANGED
-4.704987	BANGING
-4.704987	BANGKOK
-4.704987	BANGS
-4.704987	BANISH
-4.704987	BANISHED
-4.704987	BANISHING
-4.704987	BANISHMENT
-4.704987	BANISTERS
-4.704987	BANJO
-4.704987	BANK
-4.704987	BANK'S
-4.704987	BANKED
-4.704987	BANKER
-4.704987	BANKER'S
-4.704987	BANKERS
-4.704987	BANKING
-4.704987	BANKNOTE
-4.704987	BANKNOTES
-4.704987	BANKRUPT
-4.704987	BANKRUPTCIES
-4.704987	BANKRUPTCY
-4.704987	BANKS
-4.704987	BANLIEUE
-4.704987	BANNER
-4.704987	BANNERS
-4.704987	BANNOCK
-4.704987	BANNS
-4.704987	BANQUET
-4.704987	BANQUETING
-4.704987	BANQUETS
-4.704987	BANTAM
-4.704987	BANTAMS
-4.704987	BANTER
-4.704987	BANTERED
-4.704987	BANTERING
-4.704987	BANTLING
-4.704987	BANZAI
-4.704987	BAPTISM
-4.704987	BAPTISMAL
-4.704987	BAPTIST
-4.704987	BAPTISTE
-4.704987	BAPTISTERY
-4.704987	BAPTIZE
-4.704987	BAPTIZED
-4.704987	BAR
-4.704987	BARABBAS
-4.704987	BARAGUE
-4.704987	BARBAIK
-4.704987	BARBARA
-4.704987	BARBARIAN
-4.704987	BARBARIANS
-4.704987	BARBARIC
-4.704987	BARBARISM
-4.704987	BARBARITY
-4.704987	BARBAROUS
-4.704987	BARBAROUSLY
-4.704987	BARBARY
-4.704987	BARBED
-4.704987	BARBELLION
-4.704987	BARBER
-4.704987	BARBERINI
-4.704987	BARBERS
-4.704987	BARBICANE
-4.704987	BARCELONA
-4.704987	BARCHESTER
-4.704987	BARCLAY
-4.704987	BARCLAY'S
-4.704987	BARD
-4.704987	BARE
-4.704987	BAREARMED
-4.704987	BARED
-4.704987	BAREFOOT
-4.704987	BAREFOOTED
-4.704987	BAREHANDED
-4.704987	BAREHEADED
-4.704987	BARELY
-4.704987	BARENESS
-4.704987	BARES
-4.704987	BAREST
-4.704987	BARGAIN
-4.704987	BARGAINED
-4.704987	BARGAINING
-4.704987	BARGAINS
-4.704987	BARGES
-4.704987	BARING
-4.704987	BARK
-4.704987	BARKED
-4.704987	BARKEEPER
-4.704987	BARKEEPERS
-4.704987	BARKILPHEDRO
-4.704987	BARKING
-4.704987	BARKS
-4.704987	BARLEY
-4.704987	BARLOW
-4.704987	BARMAID
-4.704987	BARMAIDS
-4.704987	BARMOUTH
-4.704987	BARN
-4.704987	BARNES
-4.704987	BARNEVELTS
-4.704987	BARNS
-4.704987	BARNUM
-4.704987	BARNYARD
-4.704987	BAROCCO
-4.704987	BARODIA
-4.704987	BARODIA'S
-4.704987	BARODIANS
-4.704987	BAROMETER
-4.704987	BARON
-4.704987	BARON'S
-4.704987	BARONESS
-4.704987	BARONET
-4.704987	BARONET'S
-4.704987	BARONETCY
-4.704987	BARONIAL
-4.704987	BARONS
-4.704987	BARRACK
-4.704987	BARRACKS
-4.704987	BARRAS
-4.704987	BARRED
-4.704987	BARREL
-4.704987	BARRELLED
-4.704987	BARRELS
-4.704987	BARREN
-4.704987	BARRENNESS
-4.704987	BARRENS
-4.704987	BARRETT
-4.704987	BARRICADE
-4.704987	BARRICADES
-4.704987	BARRIER
-4.704987	BARRIERS
-4.704987	BARRING
-4.704987	BARRINGTON
-4.704987	BARRISTER
-4.704987	BARRY
-4.704987	BARRYMORE
-4.704987	BARS
-4.704987	BARSETSHIRE
-4.704987	BARSOOM
-4.704987	BARSTON
-4.704987	BART
-4.704987	BARTELS
-4.704987	BARTENDER
-4.704987	BARTHOLEMY
-4.704987	BARTHOLEMY'S
-4.704987	BARTLE
-4.704987	BARTLETT
-4.704987	BARTON
-4.704987	BARUCCI
-4.704987	BAS
-4.704987	BASCOMBE
-4.704987	BASE
-4.704987	BASEBALL
-4.704987	BASED
-4.704987	BASELY
-4.704987	BASEMENT
-4.704987	BASENESS
-4.704987	BASER
-4.704987	BASES
-4.704987	BASEST
-4.704987	BASHFUL
-4.704987	BASIC
-4.704987	BASICALLY
-4.704987	BASILICAS
-4.704987	BASILICUS
-4.704987	BASILIO
-4.704987	BASIN
-4.704987	BASINGSTOKE
-4.704987	BASIS
-4.704987	BASK
-4.704987	BASKET
-4.704987	BASKETBALL
-4.704987	BASKETFUL
-4.704987	BASKETS
-4.704987	BASKING
-4.704987	BASQUE
-4.704987	BASS
-4.704987	BASSOMPIERRE
-4.704987	BAST
-4.704987	BASTARD
-4.704987	BASTARDY
-4.704987	BASTILLE
-4.704987	BASTINADO
-4.704987	BAT
-4.704987	BATAVIA
-4.704987	BATAVIAN
-4.704987	BATCH
-4.704987	BATE
-4.704987	BATES
-4.704987	BATES'S
-4.704987	BATH
-4.704987	BATHE
-4.704987	BATHED
-4.704987	BATHES
-4.704987	BATHING
-4.704987	BATHROBE
-4.704987	BATHS
-4.704987	BATON
-4.704987	BATSY
-4.704987	BATSY'S
-4.704987	BATTALION
-4.704987	BATTALIONS
-4.704987	BATTELS
-4.704987	BATTENED
-4.704987	BATTER
-4.704987	BATTERED
-4.704987	BATTERIES
-4.704987	BATTERING
-4.704987	BATTERY
-4.704987	BATTING
-4.704987	BATTLE
-4.704987	BATTLECRIES
-4.704987	BATTLED
-4.704987	BATTLEFIELD
-4.704987	BATTLEFUL
-4.704987	BATTLEGROUND
-4.704987	BATTLEMENTS
-4.704987	BATTLES
-4.704987	BATTLESHIPS
-4.704987	BAUBLES
-4.704987	BAUM
-4.704987	BAUNE
-4.704987	BAVARIA
-4.704987	BAWBLE
-4.704987	BAWLED
-4.704987	BAWLING
-4.704987	BAXTER
-4.704987	BAY
-4.704987	BAYCON
-4.704987	BAYED
-4.704987	BAYING
-4.704987	BAYNE
-4.704987	BAYONET
-4.704987	BAYONETS
-4.704987	BAYS
-4.704987	BAZAAR
-4.704987	BAZAR
-4.704987	BE
-4.704987	BEACH
-4.704987	BEACHED
-4.704987	BEACHES
-4.704987	BEACON
-4.704987	BEACON'S
-4.704987	BEACONS
-4.704987	BEAD
-4.704987	BEADLE
-4.704987	BEADS
-4.704987	BEADY
-4.704987	BEAGLE
-4.704987	BEAK
-4.704987	BEALE
-4.704987	BEAM
-4.704987	BEAMED
-4.704987	BEAMING
-4.704987	BEAMS
-4.704987	BEAN
-4.704987	BEANS
-4.704987	BEAR
-4.704987	BEAR'S
-4.704987	BEARABLE
-4.704987	BEARD
-4.704987	BEARD'S
-4.704987	BEARDED
-4.704987	BEARDING
-4.704987	BEARDS
-4.704987	BEARER
-4.704987	BEARERS
-4.704987	BEARING
-4.704987	BEARINGS
-4.704987	BEARS
-4.704987	BEAST
-4.704987	BEAST'S
-4.704987	BEASTIES
-4.704987	BEASTLY
-4.704987	BEASTS
-4.704987	BEAT
-4.704987	BEATE
-4.704987	BEATEN
-4.704987	BEATER
-4.704987	BEATIN'EST
-4.704987	BEATING
-4.704987	BEATINGS
-4.704987	BEATRICE
-4.704987	BEATRICE'S
-4.704987	BEATS
-4.704987	BEAU
-4.704987	BEAUCHAMP
-4.704987	BEAUFORT
-4.704987	BEAUMONT
-4.704987	BEAUT
-4.704987	BEAUTEOUS
-4.704987	BEAUTIES
-4.704987	BEAUTIFUL
-4.704987	BEAUTIFULLY
-4.704987	BEAUTIFY
-4.704987	BEAUTIFYING
-4.704987	BEAUTY
-4.704987	BEAUTY'S
-4.704987	BEAUX
-4.704987	BEAVER
-4.704987	BEAVER'S
-4.704987	BEAVERS
-4.704987	BECAME
-4.704987	BECAUSE
-4.704987	BECHAMEL
-4.704987	BECHAMEL'S
-4.704987	BECKET
-4.704987	BECKON
-4.704987	BECKONED
-4.704987	BECKONING
-4.704987	BECKONS
-4.704987	BECKY
-4.704987	BECKY'S
-4.704987	BECOME
-4.704987	BECOMES
-4.704987	BECOMING
-4.704987	BED
-4.704987	BED'S
-4.704987	BEDABBLED
-4.704987	BEDCHAMBER
-4.704987	BEDCLOTHES
-4.704987	BEDDING
-4.704987	BEDFORD
-4.704987	BEDFORDSHIRE
-4.704987	BEDRAGGLED
-4.704987	BEDRIDDEN
-4.704987	BEDROOM
-4.704987	BEDROOMS
-4.704987	BEDS
-4.704987	BEDSIDE
-4.704987	BEDSTEAD
-4.704987	BEDSTEADS
-4.704987	BEE
-4.704987	BEECH
-4.704987	BEECHER
-4.704987	BEECHES
-4.704987	BEEF
-4.704987	BEEHIVE
-4.704987	BEEHIVES
-4.704987	BEEN
-4.704987	BEER
-4.704987	BEERSHEBA
-4.704987	BEES
-4.704987	BEETHOVEN
-4.704987	BEETLE
-4.704987	BEFALL
-4.704987	BEFALLEN
-4.704987	BEFEL
-4.704987	BEFELL
-4.704987	BEFITS
-4.704987	BEFITTING
-4.704987	BEFOOLED
-4.704987	BEFORE
-4.704987	BEFOREHAND
-4.704987	BEFRIEND
-4.704987	BEFRIENDED
-4.704987	BEFRIENDING
-4.704987	BEG
-4.704987	BEGAN
-4.704987	BEGANNE
-4.704987	BEGAT
-4.704987	BEGGAR
-4.704987	BEGGAR'S
-4.704987	BEGGARED
-4.704987	BEGGARS
-4.704987	BEGGARY
-4.704987	BEGGED
-4.704987	BEGGING
-4.704987	BEGIN
-4.704987	BEGINNER
-4.704987	BEGINNERS
-4.704987	BEGINNETH
-4.704987	BEGINNIN
-4.704987	BEGINNING
-4.704987	BEGINNINGS
-4.704987	BEGINS
-4.704987	BEGIRT
-4.704987	BEGONE
-4.704987	BEGOT
-4.704987	BEGOTTEN
-4.704987	BEGRUDGED
-4.704987	BEGS
-4.704987	BEGUILE
-4.704987	BEGUILED
-4.704987	BEGUINE
-4.704987	BEGUINES
-4.704987	BEGUN
-4.704987	BEHALF
-4.704987	BEHAVE
-4.704987	BEHAVED
-4.704987	BEHAVES
-4.704987	BEHAVING
-4.704987	BEHAVIOR
-4.704987	BEHAVIOUR
-4.704987	BEHEADED
-4.704987	BEHELD
-4.704987	BEHIND
-4.704987	BEHINDS
-4.704987	BEHOLD
-4.704987	BEHOLDEN
-4.704987	BEHOLDER
-4.704987	BEHOLDERS
-4.704987	BEHOLDING
-4.704987	BEHOLDS
-4.704987	BEHOOVES
-4.704987	BEHOVED
-4.704987	BEHOVES
-4.704987	BEHRING
-4.704987	BEIN
-4.704987	BEING
-4.704987	BEING'S
-4.704987	BEINGS
-4.704987	BEL
-4.704987	BELABORED
-4.704987	BELABOUR
-4.704987	BELABOURED
-4.704987	BELATED
-4.704987	BELBURG
-4.704987	BELCHER
-4.704987	BELCHING
-4.704987	BELFRY
-4.704987	BELGIAN
-4.704987	BELGIANS
-4.704987	BELGIOJOSO
-4.704987	BELGIUM
-4.704987	BELIE
-4.704987	BELIEF
-4.704987	BELIEFS
-4.704987	BELIEVE
-4.704987	BELIEVED
-4.704987	BELIEVER
-4.704987	BELIEVERS
-4.704987	BELIEVES
-4.704987	BELIEVING
-4.704987	BELIKE
-4.704987	BELINDA
-4.704987	BELISARIUS
-4.704987	BELITTLE
-4.704987	BELL
-4.704987	BELL'S
-4.704987	BELLA
-4.704987	BELLAH
-4.704987	BELLE
-4.704987	BELLE'S
-4.704987	BELLERS
-4.704987	BELLES
-4.704987	BELLEVUE
-4.704987	BELLIED
-4.704987	BELLIES
-4.704987	BELLIGERENT
-4.704987	BELLINCIONE
-4.704987	BELLISSIMA
-4.704987	BELLMAN
-4.704987	BELLOW
-4.704987	BELLOWED
-4.704987	BELLOWING
-4.704987	BELLRINGER
-4.704987	BELLS
-4.704987	BELLY
-4.704987	BELMA
-4.704987	BELMONT
-4.704987	BELMONT'S
-4.704987	BELONG
-4.704987	BELONGED
-4.704987	BELONGETH
-4.704987	BELONGING
-4.704987	BELONGINGS
-4.704987	BELONGS
-4.704987	BELOSTOMA
-4.704987	BELOSTOMA'S
-4.704987	BELOVED
-4.704987	BELOW
-4.704987	BELT
-4.704987	BELTED
-4.704987	BELTS
-4.704987	BELUM
-4.704987	BELVANE
-4.704987	BELVANE'S
-4.704987	BEMOANED
-4.704987	BEMOANING
-4.704987	BEMUS
-4.704987	BEN
-4.704987	BEN'S
-4.704987	BENARES
-4.704987	BENCH
-4.704987	BENCHES
-4.704987	BENCHLEY
-4.704987	BEND
-4.704987	BENDER
-4.704987	BENDING
-4.704987	BENDINGS
-4.704987	BENDS
-4.704987	BENE
-4.704987	BENEATH
-4.704987	BENEDETTO
-4.704987	BENEDICT
-4.704987	BENEDICTINE
-4.704987	BENEDICTION
-4.704987	BENEDIGHT
-4.704987	BENEFACTIONS
-4.704987	BENEFACTOR
-4.704987	BENEFACTORS
-4.704987	BENEFICENT
-4.704987	BENEFICIAL
-4.704987	BENEFIT
-4.704987	BENEFITED
-4.704987	BENEFITS
-4.704987	BENEVOLENCE
-4.704987	BENEVOLENT
-4.704987	BENEVOLENTLY
-4.704987	BENGAL
-4.704987	BENI
-4.704987	BENIGHTED
-4.704987	BENIGN
-4.704987	BENIGNANT
-4.704987	BENJAMIN
-4.704987	BENJAMIN'S
-4.704987	BENNET
-4.704987	BENNET'S
-4.704987	BENNETS
-4.704987	BENNETT
-4.704987	BENNETT'S
-4.704987	BENNINSCHEIN
-4.704987	BENT
-4.704987	BENTHAM
-4.704987	BENTLEY
-4.704987	BENUMBED
-4.704987	BENVENUTO
-4.704987	BENZINE
-4.704987	BEQUEATHED
-4.704987	BEQUEST
-4.704987	BEQUESTS
-4.704987	BERATING
-4.704987	BEREAVED
-4.704987	BEREFT
-4.704987	BERENGARIA
-4.704987	BERESFORD
-4.704987	BERESFORDS
-4.704987	BERG
-4.704987	BERGEN
-4.704987	BERGMANN
-4.704987	BERKELEY
-4.704987	BERKSHIRE
-4.704987	BERLIN
-4.704987	BERNAJOUX
-4.704987	BERNARD
-4.704987	BERNARD'S
-4.704987	BERRIES
-4.704987	BERRY
-4.704987	BERRYVILLE
-4.704987	BERSIAMITES
-4.704987	BERT
-4.704987	BERTH
-4.704987	BERTHA
-4.704987	BERTIN
-4.704987	BERTRAM
-4.704987	BERYL
-4.704987	BERYL'S
-4.704987	BERYLS
-4.704987	BES
-4.704987	BESEECH
-4.704987	BESEECHING
-4.704987	BESEECHINGLY
-4.704987	BESEEMED
-4.704987	BESEEMETH
-4.704987	BESET
-4.704987	BESHREW
-4.704987	BESIDE
-4.704987	BESIDES
-4.704987	BESIEGED
-4.704987	BESIEGETH
-4.704987	BESMIRCHED
-4.704987	BESOTTED
-4.704987	BESOUGHT
-4.704987	BESPEAK
-4.704987	BESPEAKING
-4.704987	BESPOKE
-4.704987	BESS'S
-4.704987	BEST
-4.704987	BESTA
-4.704987	BESTIRRED
-4.704987	BESTOW
-4.704987	BESTOWED
-4.704987	BESTOWER
-4.704987	BESTOWING
-4.704987	BESTOWS
-4.704987	BESTRIDDEN
-4.704987	BET
-4.704987	BETH
-4.704987	BETH'S
-4.704987	BETHEL
-4.704987	BETHEL'S
-4.704987	BETHELL
-4.704987	BETHINK
-4.704987	BETHINKS
-4.704987	BETHISY
-4.704987	BETHOUGHT
-4.704987	BETHULIA
-4.704987	BETIMES
-4.704987	BETOKENED
-4.704987	BETOKENS
-4.704987	BETRAY
-4.704987	BETRAYAL
-4.704987	BETRAYED
-4.704987	BETRAYING
-4.704987	BETRAYS
-4.704987	BETROTHAL
-4.704987	BETROTHED
-4.704987	BETS
-4.704987	BETTER
-4.704987	BETTER'
-4.704987	BETTERS
-4.704987	BETTING
-4.704987	BETTWS
-4.704987	BETTY
-4.704987	BETULOIDES
-4.704987	BETWEEN
-4.704987	BETWEENS
-4.704987	BETWIXT
-4.704987	BEVEL
-4.704987	BEVERAGE
-4.704987	BEVERAGES
-4.704987	BEVERLEY
-4.704987	BEVERNINGH
-4.704987	BEVIL
-4.704987	BEWAIL
-4.704987	BEWAILED
-4.704987	BEWAILING
-4.704987	BEWARE
-4.704987	BEWILDERED
-4.704987	BEWILDERING
-4.704987	BEWILDERMENT
-4.704987	BEWITCH
-4.704987	BEWITCHED
-4.704987	BEWITCHING
-4.704987	BEYOND
-4.704987	BHAER
-4.704987	BHAERS
-4.704987	BI
-4.704987	BIARMIA
-4.704987	BIAS
-4.704987	BIBBERS
-4.704987	BIBBS
-4.704987	BIBLE
-4.704987	BIBLICAL
-4.704987	BIBLIOMANIAC
-4.704987	BICEPS
-4.704987	BICKERING
-4.704987	BICYCLE
-4.704987	BICYCLES
-4.704987	BICYCLING
-4.704987	BID
-4.704987	BIDDEN
-4.704987	BIDDER
-4.704987	BIDDING
-4.704987	BIDDLE
-4.704987	BIDDY
-4.704987	BIDDY'S
-4.704987	BIDED
-4.704987	BIDIN
-4.704987	BIDLOO
-4.704987	BIDPAI
-4.704987	BIDS
-4.704987	BIE
-4.704987	BIER
-4.704987	BIFF
-4.704987	BIFURCATE
-4.704987	BIFURCATION
-4.704987	BIG
-4.704987	BIGAMY
-4.704987	BIGGER
-4.704987	BIGGEST
-4.704987	BIGHT
-4.704987	BIGNESS
-4.704987	BIGOT
-4.704987	BIGOTED
-4.704987	BIGOTRY
-4.704987	BIJOUTERIE
-4.704987	BILL
-4.704987	BILL'S
-4.704987	BILLET
-4.704987	BILLIARD
-4.704987	BILLIARDS
-4.704987	BILLINGSGATE
-4.704987	BILLIONS
-4.704987	BILLIOUSNESS
-4.704987	BILLOW
-4.704987	BILLOWS
-4.704987	BILLS
-4.704987	BILLY
-4.704987	BILLY'S
-4.704987	BIN
-4.704987	BINCLEAVES
-4.704987	BIND
-4.704987	BINDERS
-4.704987	BINDING
-4.704987	BINDINGS
-4.704987	BINDS
-4.704987	BINGLEY
-4.704987	BINGLEY'S
-4.704987	BINNACLE
-4.704987	BINNY
-4.704987	BINOCULARS
-4.704987	BINS
-4.704987	BIOGRAPH
-4.704987	BIOGRAPHER
-4.704987	BIOGRAPHICAL
-4.704987	BIOGRAPHY
-4.704987	BIOLOGICAL
-4.704987	BIOLOGIST
-4.704987	BIPEDS
-4.704987	BIRCH
-4.704987	BIRCHES
-4.704987	BIRCHWOOD
-4.704987	BIRD
-4.704987	BIRD'S
-4.704987	BIRDIE
-4.704987	BIRDS
-4.704987	BIRMINGHAM
-4.704987	BIRTH
-4.704987	BIRTHDAY
-4.704987	BIRTHNIGHT
-4.704987	BIRTHPLACE
-4.704987	BIRTHRIGHT
-4.704987	BIRTHS
-4.704987	BISBEE
-4.704987	BISCAY
-4.704987	BISCUIT
-4.704987	BISCUITS
-4.704987	BISECT
-4.704987	BISECTED
-4.704987	BISHOP
-4.704987	BISHOP'S
-4.704987	BISHOPS
-4.704987	BISMARCK'S
-4.704987	BISON
-4.704987	BISSING
-4.704987	BIT
-4.704987	BITCH
-4.704987	BITCHES
-4.704987	BITE
-4.704987	BITES
-4.704987	BITING
-4.704987	BITS
-4.704987	BITTEN
-4.704987	BITTER
-4.704987	BITTEREST
-4.704987	BITTERLY
-4.704987	BITTERNESS
-4.704987	BIVALVES
-4.704987	BIVOUAC
-4.704987	BIVOUACKING
-4.704987	BIZARRE
-4.704987	BIZNESS
-4.704987	BJAALAND
-4.704987	BLACK
-4.704987	BLACKBERRIES
-4.704987	BLACKBIRD
-4.704987	BLACKBIRDS
-4.704987	BLACKBOARD
-4.704987	BLACKBURN
-4.704987	BLACKBURN'S
-4.704987	BLACKED
-4.704987	BLACKEN
-4.704987	BLACKENED
-4.704987	BLACKER
-4.704987	BLACKEST
-4.704987	BLACKGUARDS
-4.704987	BLACKING
-4.704987	BLACKISH
-4.704987	BLACKMAIL
-4.704987	BLACKMAILERS
-4.704987	BLACKMAILING
-4.704987	BLACKNESS
-4.704987	BLACKS
-4.704987	BLACKSMITH
-4.704987	BLACKSMITH'S
-4.704987	BLACKSTONE
-4.704987	BLACKTHORN
-4.704987	BLACKWOOD
-4.704987	BLACKWOOD'S
-4.704987	BLACKY
-4.704987	BLADDER
-4.704987	BLADE
-4.704987	BLADES
-4.704987	BLAINE
-4.704987	BLAIR
-4.704987	BLAIR'S
-4.704987	BLAKE
-4.704987	BLAKE'S
-4.704987	BLAKENEY
-4.704987	BLAME
-4.704987	BLAMED
-4.704987	BLAMELESS
-4.704987	BLAMING
-4.704987	BLANC
-4.704987	BLANCH
-4.704987	BLANCHED
-4.704987	BLAND
-4.704987	BLAND'S
-4.704987	BLANDEST
-4.704987	BLANDISHMENTS
-4.704987	BLANDLY
-4.704987	BLANK
-4.704987	BLANKENHEIM
-4.704987	BLANKET
-4.704987	BLANKETS
-4.704987	BLANKLY
-4.704987	BLANKNESS
-4.704987	BLANQUI
-4.704987	BLASI
-4.704987	BLASI'S
-4.704987	BLASPHEMIES
-4.704987	BLASPHEMOUS
-4.704987	BLASPHEMY
-4.704987	BLAST
-4.704987	BLASTED
-4.704987	BLASTING
-4.704987	BLASTS
-4.704987	BLAUSSER
-4.704987	BLAZE
-4.704987	BLAZED
-4.704987	BLAZES
-4.704987	BLAZING
-4.704987	BLAZON
-4.704987	BLEAK
-4.704987	BLEAR
-4.704987	BLEARY
-4.704987	BLEATING
-4.704987	BLEED
-4.704987	BLEEDING
-4.704987	BLEEDS
-4.704987	BLEMISH
-4.704987	BLEMISHES
-4.704987	BLENAN
-4.704987	BLEND
-4.704987	BLENDED
-4.704987	BLENDING
-4.704987	BLENDINGS
-4.704987	BLENHEIM
-4.704987	BLENNIES
-4.704987	BLESKENIUS
-4.704987	BLESS
-4.704987	BLESSED
-4.704987	BLESSEDNESS
-4.704987	BLESSES
-4.704987	BLESSING
-4.704987	BLESSINGS
-4.704987	BLEST
-4.704987	BLEU
-4.704987	BLEW
-4.704987	BLEWED
-4.704987	BLIGHT
-4.704987	BLIGHTED
-4.704987	BLIND
-4.704987	BLINDED
-4.704987	BLINDERS
-4.704987	BLINDFOLD
-4.704987	BLINDFOLDED
-4.704987	BLINDING
-4.704987	BLINDLY
-4.704987	BLINDNESS
-4.704987	BLINDS
-4.704987	BLINK
-4.704987	BLINKED
-4.704987	BLINKIN
-4.704987	BLINKING
-4.704987	BLINKIT
-4.704987	BLISS
-4.704987	BLISSFUL
-4.704987	BLISTER
-4.704987	BLISTERED
-4.704987	BLISTERS
-4.704987	BLITHE
-4.704987	BLITHELY
-4.704987	BLIZZARD
-4.704987	BLOATED
-4.704987	BLOB
-4.704987	BLOCK
-4.704987	BLOCKADE
-4.704987	BLOCKED
-4.704987	BLOCKHEAD
-4.704987	BLOCKHEADS
-4.704987	BLOCKING
-4.704987	BLOCKS
-4.704987	BLOND
-4.704987	BLONDE
-4.704987	BLOOD
-4.704987	BLOODED
-4.704987	BLOODHOUNDS
-4.704987	BLOODLESS
-4.704987	BLOODSHED
-4.704987	BLOODTHIRSTY
-4.704987	BLOODY
-4.704987	BLOOM
-4.704987	BLOOMED
-4.704987	BLOOMER
-4.704987	BLOOMIEST
-4.704987	BLOOMIN
-4.704987	BLOOMING
-4.704987	BLOOMLESS
-4.704987	BLOOMS
-4.704987	BLOSSOM
-4.704987	BLOSSOMED
-4.704987	BLOSSOMING
-4.704987	BLOSSOMS
-4.704987	BLOT
-4.704987	BLOT'S
-4.704987	BLOTCHES
-4.704987	BLOTCHY
-4.704987	BLOTS
-4.704987	BLOTTED
-4.704987	BLOTTING
-4.704987	BLOUNT
-4.704987	BLOUSE
-4.704987	BLOUSES
-4.704987	BLOW
-4.704987	BLOWIN
-4.704987	BLOWING
-4.704987	BLOWN
-4.704987	BLOWS
-4.704987	BLUBBER
-4.704987	BLUE
-4.704987	BLUEBELLS
-4.704987	BLUEBERRY
-4.704987	BLUEBIRD
-4.704987	BLUED
-4.704987	BLUENESS
-4.704987	BLUEST
-4.704987	BLUFF
-4.704987	BLUFFED
-4.704987	BLUFFLY
-4.704987	BLUFFS
-4.704987	BLUISH
-4.704987	BLUNDER
-4.704987	BLUNDERBUSS
-4.704987	BLUNDERBUSSES
-4.704987	BLUNDERED
-4.704987	BLUNDERINGLY
-4.704987	BLUNDERS
-4.704987	BLUNT
-4.704987	BLUNT'S
-4.704987	BLUNTLY
-4.704987	BLUNTNESS
-4.704987	BLUR
-4.704987	BLURRED
-4.704987	BLURRING
-4.704987	BLURTED
-4.704987	BLUSH
-4.704987	BLUSHED
-4.704987	BLUSHES
-4.704987	BLUSHING
-4.704987	BLUSHINGLY
-4.704987	BLUSTER
-4.704987	BLYTH
-4.704987	BLYTHE
-4.704987	BO
-4.704987	BOA
-4.704987	BOA'S
-4.704987	BOAR
-4.704987	BOAR'S
-4.704987	BOARD
-4.704987	BOARDED
-4.704987	BOARDER
-4.704987	BOARDERS
-4.704987	BOARDING
-4.704987	BOARDING'S
-4.704987	BOARDS
-4.704987	BOARS
-4.704987	BOAS
-4.704987	BOAST
-4.704987	BOASTED
-4.704987	BOASTFUL
-4.704987	BOASTING
-4.704987	BOASTS
-4.704987	BOAT
-4.704987	BOAT'S
-4.704987	BOATING
-4.704987	BOATMAN
-4.704987	BOATMEN
-4.704987	BOATS
-4.704987	BOATSWAIN
-4.704987	BOB
-4.704987	BOB'S
-4.704987	BOBBING
-4.704987	BOBBINS
-4.704987	BOBBY
-4.704987	BOBBY'S
-4.704987	BOBO
-4.704987	BOBO'S
-4.704987	BOCHE
-4.704987	BOCHES
-4.704987	BODED
-4.704987	BODICE
-4.704987	BODIED
-4.704987	BODIES
-4.704987	BODILY
-4.704987	BODKINS
-4.704987	BODY
-4.704987	BODY'S
-4.704987	BODYGUARD
-4.704987	BOGGY
-4.704987	BOGNOR
-4.704987	BOGUCHAROVO
-4.704987	BOHEMIA
-4.704987	BOHEMIA'S
-4.704987	BOHEMIAN
-4.704987	BOHEMIANS
-4.704987	BOHEMIENNE
-4.704987	BOHEMUS
-4.704987	BOIL
-4.704987	BOILED
-4.704987	BOILER
-4.704987	BOILERS
-4.704987	BOILING
-4.704987	BOISTEROUS
-4.704987	BOLD
-4.704987	BOLDER
-4.704987	BOLDEST
-4.704987	BOLDLY
-4.704987	BOLDNESS
-4.704987	BOLE
-4.704987	BOLES
-4.704987	BOLEYN
-4.704987	BOLEYN'S
-4.704987	BOLGIE
-4.704987	BOLING
-4.704987	BOLING'S
-4.704987	BOLINGBROKE
-4.704987	BOLKONSKI
-4.704987	BOLKONSKIS
-4.704987	BOLSTER
-4.704987	BOLT
-4.704987	BOLTED
-4.704987	BOLTING
-4.704987	BOLTON
-4.704987	BOLTS
-4.704987	BOMBARDED
-4.704987	BOMBAST
-4.704987	BOMBAZINE
-4.704987	BOMBS
-4.704987	BON
-4.704987	BONACIEUX
-4.704987	BONAPARTE'S
-4.704987	BONAPARTIST
-4.704987	BONBONS
-4.704987	BOND
-4.704987	BONDAGE
-4.704987	BONDS
-4.704987	BONDSMAN
-4.704987	BONE
-4.704987	BONES
-4.704987	BONEYARD
-4.704987	BONFIRE
-4.704987	BONFIRES
-4.704987	BONHAM
-4.704987	BONHOMME
-4.704987	BONIFACE
-4.704987	BONNET
-4.704987	BONNETS
-4.704987	BONNEY
-4.704987	BONNIEST
-4.704987	BONS
-4.704987	BONY
-4.704987	BOOBIES
-4.704987	BOODLE
-4.704987	BOOK
-4.704987	BOOKCASE
-4.704987	BOOKCASES
-4.704987	BOOKER
-4.704987	BOOKKEEPING
-4.704987	BOOKLET
-4.704987	BOOKS
-4.704987	BOOKSELLER
-4.704987	BOOKSHELF
-4.704987	BOOKSHELVES
-4.704987	BOOKSTALL
-4.704987	BOOKSTORE
-4.704987	BOOM
-4.704987	BOOMABLE
-4.704987	BOOMED
-4.704987	BOOMERANG
-4.704987	BOOMING
-4.704987	BOON
-4.704987	BOORISHNESS
-4.704987	BOOST
-4.704987	BOOSTER
-4.704987	BOOSTERS
-4.704987	BOOSTING
-4.704987	BOOT
-4.704987	BOOTERS
-4.704987	BOOTH
-4.704987	BOOTMAKER'S
-4.704987	BOOTS
-4.704987	BOOTY
-4.704987	BORDEAUX
-4.704987	BORDER
-4.704987	BORDERED
-4.704987	BORDERING
-4.704987	BORDERS
-4.704987	BORE
-4.704987	BOREAS
-4.704987	BORED
-4.704987	BORES
-4.704987	BORG
-4.704987	BORGO
-4.704987	BORING
-4.704987	BORINGS
-4.704987	BORN
-4.704987	BORNE
-4.704987	BORNEO
-4.704987	BORODINO
-4.704987	BOROUGH
-4.704987	BORROW
-4.704987	BORROWED
-4.704987	BORROWER
-4.704987	BORROWING
-4.704987	BORSIPPA
-4.704987	BOSCASTLE
-4.704987	BOSH
-4.704987	BOSOM
-4.704987	BOSOMS
-4.704987	BOSPHORUS
-4.704987	BOSS
-4.704987	BOSSED
-4.704987	BOSSES
-4.704987	BOSSUET
-4.704987	BOSSY
-4.704987	BOSTICHI
-4.704987	BOSTON
-4.704987	BOSTON'S
-4.704987	BOSTONIAN
-4.704987	BOSTRA
-4.704987	BOSUN
-4.704987	BOSWELL
-4.704987	BOSWORTH
-4.704987	BOTANICAL
-4.704987	BOTANISTS
-4.704987	BOTH
-4.704987	BOTHER
-4.704987	BOTHERED
-4.704987	BOTHERING
-4.704987	BOTHERS
-4.704987	BOTTLE
-4.704987	BOTTLED
-4.704987	BOTTLES
-4.704987	BOTTOM
-4.704987	BOTTOMED
-4.704987	BOTTOMLESS
-4.704987	BOTTOMS
-4.704987	BOUCHAIN
-4.704987	BOUDOIR
-4.704987	BOUDOIRS
-4.704987	BOUGH
-4.704987	BOUGHS
-4.704987	BOUGHT
-4.704987	BOUGHTEN
-4.704987	BOULDER
-4.704987	BOULDERS
-4.704987	BOULEVARD
-4.704987	BOULEVARDS
-4.704987	BOULTER
-4.704987	BOUNCE
-4.704987	BOUNCED
-4.704987	BOUND
-4.704987	BOUNDARIES
-4.704987	BOUNDARY
-4.704987	BOUNDED
-4.704987	BOUNDING
-4.704987	BOUNDLESS
-4.704987	BOUNDS
-4.704987	BOUNTIES
-4.704987	BOUNTIFUL
-4.704987	BOUNTY
-4.704987	BOUQUET
-4.704987	BOUQUETS
-4.704987	BOURBON
-4.704987	BOURBONS
-4.704987	BOURGEOIS
-4.704987	BOURGEOISE
-4.704987	BOURGEOISIE
-4.704987	BOURGH
-4.704987	BOURGOGNE
-4.704987	BOURNEMOUTH
-4.704987	BOUSER
-4.704987	BOUT
-4.704987	BOUTS
-4.704987	BOVILLE
-4.704987	BOVINA
-4.704987	BOVINELY
-4.704987	BOW
-4.704987	BOWED
-4.704987	BOWEL
-4.704987	BOWELS
-4.704987	BOWEN
-4.704987	BOWER
-4.704987	BOWERY
-4.704987	BOWIE
-4.704987	BOWING
-4.704987	BOWL
-4.704987	BOWLDERS
-4.704987	BOWLED
-4.704987	BOWLING
-4.704987	BOWLS
-4.704987	BOWMAN
-4.704987	BOWNTANCE
-4.704987	BOWS
-4.704987	BOWSTRING
-4.704987	BOX
-4.704987	BOXCLOTH
-4.704987	BOXED
-4.704987	BOXER
-4.704987	BOXES
-4.704987	BOXING
-4.704987	BOXWOOD
-4.704987	BOY
-4.704987	BOY'S
-4.704987	BOYHOOD
-4.704987	BOYHOOD'S
-4.704987	BOYISH
-4.704987	BOYS
-4.704987	BRAC
-4.704987	BRACE
-4.704987	BRACELET
-4.704987	BRACELETS
-4.704987	BRACER
-4.704987	BRACES
-4.704987	BRACING
-4.704987	BRACKEN
-4.704987	BRACKET
-4.704987	BRACKETS
-4.704987	BRADEMAGUS
-4.704987	BRADFORD
-4.704987	BRADLEY
-4.704987	BRADSHAW
-4.704987	BRAG
-4.704987	BRAGGER
-4.704987	BRAGGING
-4.704987	BRAGS
-4.704987	BRAGTON
-4.704987	BRAID
-4.704987	BRAIDED
-4.704987	BRAIDS
-4.704987	BRAIN
-4.704987	BRAINED
-4.704987	BRAINIER
-4.704987	BRAINS
-4.704987	BRAITHWAITE
-4.704987	BRAKE
-4.704987	BRAKES
-4.704987	BRAMBLE
-4.704987	BRAMBLES
-4.704987	BRAN
-4.704987	BRANCH
-4.704987	BRANCHED
-4.704987	BRANCHES
-4.704987	BRAND
-4.704987	BRANDED
-4.704987	BRANDER
-4.704987	BRANDILES
-4.704987	BRANDING
-4.704987	BRANDISHED
-4.704987	BRANDISHING
-4.704987	BRANDS
-4.704987	BRANDT
-4.704987	BRANDY
-4.704987	BRANNAN
-4.704987	BRANTOME'S
-4.704987	BRASHY
-4.704987	BRASS
-4.704987	BRAT
-4.704987	BRAVADO
-4.704987	BRAVE
-4.704987	BRAVELY
-4.704987	BRAVER
-4.704987	BRAVERY
-4.704987	BRAVES
-4.704987	BRAVEST
-4.704987	BRAVO
-4.704987	BRAWL
-4.704987	BRAWLER
-4.704987	BRAWLING
-4.704987	BRAWN
-4.704987	BRAWNE
-4.704987	BRAWNY
-4.704987	BRAY
-4.704987	BRAYED
-4.704987	BRAYS
-4.704987	BRAZEN
-4.704987	BRAZIER
-4.704987	BRAZIL
-4.704987	BRAZIL'S
-4.704987	BRAZILIAN
-4.704987	BRE'KFUS
-4.704987	BREACH
-4.704987	BREACHES
-4.704987	BREAD
-4.704987	BREAD'S
-4.704987	BREADS
-4.704987	BREADTH
-4.704987	BREAK
-4.704987	BREAKAGE
-4.704987	BREAKER
-4.704987	BREAKERS
-4.704987	BREAKFAST
-4.704987	BREAKFASTED
-4.704987	BREAKFASTING
-4.704987	BREAKIN
-4.704987	BREAKING
-4.704987	BREAKNECK
-4.704987	BREAKS
-4.704987	BREAKUP
-4.704987	BREAKWATER
-4.704987	BREAST
-4.704987	BREASTED
-4.704987	BREASTPLATE
-4.704987	BREASTPLATES
-4.704987	BREASTS
-4.704987	BREASTWORK
-4.704987	BREASTWORKS
-4.704987	BREATH
-4.704987	BREATHABLE
-4.704987	BREATHE
-4.704987	BREATHED
-4.704987	BREATHER
-4.704987	BREATHES
-4.704987	BREATHING
-4.704987	BREATHINGS
-4.704987	BREATHLESS
-4.704987	BREATHLESSLY
-4.704987	BRED
-4.704987	BREECH
-4.704987	BREECHES
-4.704987	BREED
-4.704987	BREEDERS
-4.704987	BREEDING
-4.704987	BREEDS
-4.704987	BREEZE
-4.704987	BREEZES
-4.704987	BRENDA
-4.704987	BRESCHIA
-4.704987	BREST
-4.704987	BRETHREN
-4.704987	BRETON
-4.704987	BREVET
-4.704987	BREVITY
-4.704987	BREVOORT
-4.704987	BREWED
-4.704987	BREWERY
-4.704987	BREWING
-4.704987	BREWSTER
-4.704987	BRIAR
-4.704987	BRIARS
-4.704987	BRIBE
-4.704987	BRIBED
-4.704987	BRIBERY
-4.704987	BRIBES
-4.704987	BRIC
-4.704987	BRICK
-4.704987	BRICKED
-4.704987	BRICKS
-4.704987	BRICKWORK
-4.704987	BRIDAL
-4.704987	BRIDE
-4.704987	BRIDE'S
-4.704987	BRIDEGROOM
-4.704987	BRIDES
-4.704987	BRIDESMAIDS
-4.704987	BRIDGE
-4.704987	BRIDGEPORT
-4.704987	BRIDGES
-4.704987	BRIDGET
-4.704987	BRIDLE
-4.704987	BRIDLED
-4.704987	BRIDLES
-4.704987	BRIDMAIN
-4.704987	BRIDMAIN'S
-4.704987	BRIEF
-4.704987	BRIEFITES
-4.704987	BRIEFLY
-4.704987	BRIERS
-4.704987	BRIG
-4.704987	BRIG'S
-4.704987	BRIGADE
-4.704987	BRIGADED
-4.704987	BRIGADES
-4.704987	BRIGADIER
-4.704987	BRIGANDAGE
-4.704987	BRIGANDS
-4.704987	BRIGANTINE
-4.704987	BRIGGS
-4.704987	BRIGHAM
-4.704987	BRIGHT
-4.704987	BRIGHTEN
-4.704987	BRIGHTENED
-4.704987	BRIGHTENING
-4.704987	BRIGHTENS
-4.704987	BRIGHTER
-4.704987	BRIGHTEST
-4.704987	BRIGHTLY
-4.704987	BRIGHTNESS
-4.704987	BRIGHTON
-4.704987	BRILLIANCE
-4.704987	BRILLIANCY
-4.704987	BRILLIANT
-4.704987	BRILLIANTLY
-4.704987	BRIM
-4.704987	BRIMFUL
-4.704987	BRIMLEY
-4.704987	BRIMMED
-4.704987	BRIMMING
-4.704987	BRIMSTONE
-4.704987	BRINDISI
-4.704987	BRING
-4.704987	BRINGETH
-4.704987	BRINGIN
-4.704987	BRINGING
-4.704987	BRINGS
-4.704987	BRINK
-4.704987	BRINZAS
-4.704987	BRISK
-4.704987	BRISKLY
-4.704987	BRISTLE
-4.704987	BRISTLED
-4.704987	BRISTLES
-4.704987	BRISTLING
-4.704987	BRISTLY
-4.704987	BRISTOL
-4.704987	BRITAIN
-4.704987	BRITISH
-4.704987	BRITISHLY
-4.704987	BRITON
-4.704987	BRITON'S
-4.704987	BRITONS
-4.704987	BRITTANY
-4.704987	BRITTLE
-4.704987	BROACHED
-4.704987	BROAD
-4.704987	BROADBENT
-4.704987	BROADCAST
-4.704987	BROADCUT
-4.704987	BROADENING
-4.704987	BROADER
-4.704987	BROADEST
-4.704987	BROADLY
-4.704987	BROADSHEET
-4.704987	BROADSHEETS
-4.704987	BROADSWORD
-4.704987	BROADWAY
-4.704987	BROADWAYS
-4.704987	BROADWING
-4.704987	BROBDIGNAGIANS
-4.704987	BROBDINGNAGIAN
-4.704987	BROCHURE
-4.704987	BRODIE
-4.704987	BROECK
-4.704987	BROGUE
-4.704987	BROIL
-4.704987	BROILED
-4.704987	BROILING
-4.704987	BROKE
-4.704987	BROKEN
-4.704987	BROKER
-4.704987	BROKERS
-4.704987	BRONCHITIS
-4.704987	BRONCOS
-4.704987	BRONCS
-4.704987	BRONSON
-4.704987	BRONTOSAURUS
-4.704987	BRONZE
-4.704987	BRONZED
-4.704987	BRONZY
-4.704987	BROOCH
-4.704987	BROOCHES
-4.704987	BROOD
-4.704987	BROODED
-4.704987	BROODING
-4.704987	BROODINGLY
-4.704987	BROODS
-4.704987	BROOK
-4.704987	BROOKLINE
-4.704987	BROOKLYN
-4.704987	BROOKS
-4.704987	BROOKSIDE
-4.704987	BROOM
-4.704987	BROOME
-4.704987	BROOMSTICK
-4.704987	BROTH
-4.704987	BROTHER
-4.704987	BROTHER'S
-4.704987	BROTHERHOOD
-4.704987	BROTHERLY
-4.704987	BROTHERS
-4.704987	BROTHS
-4.704987	BROUGHAM
-4.704987	BROUGHT
-4.704987	BROUGHTON
-4.704987	BROW
-4.704987	BROWBOROUGH
-4.704987	BROWED
-4.704987	BROWN
-4.704987	BROWN'S
-4.704987	BROWNIE
-4.704987	BROWNIE'S
-4.704987	BROWNING
-4.704987	BROWNISH
-4.704987	BROWNRIGG
-4.704987	BROWNRIGG'S
-4.704987	BROWNS
-4.704987	BROWS
-4.704987	BROWSE
-4.704987	BROWSED
-4.704987	BROWSES
-4.704987	BRUGES
-4.704987	BRUISE
-4.704987	BRUISED
-4.704987	BRUISERS
-4.704987	BRUISES
-4.704987	BRUISING
-4.704987	BRUJON
-4.704987	BRUM
-4.704987	BRUMMAGEM
-4.704987	BRUNETTE
-4.704987	BRUNG
-4.704987	BRUNHILDA
-4.704987	BRUNNERS
-4.704987	BRUNSWICK
-4.704987	BRUNTON
-4.704987	BRUNWALDE
-4.704987	BRUSH
-4.704987	BRUSHED
-4.704987	BRUSHES
-4.704987	BRUSHING
-4.704987	BRUSHY
-4.704987	BRUSQUE
-4.704987	BRUSSELS
-4.704987	BRUTAL
-4.704987	BRUTALISED
-4.704987	BRUTALITY
-4.704987	BRUTALLY
-4.704987	BRUTE
-4.704987	BRUTE'S
-4.704987	BRUTES
-4.704987	BRUTISHNESS
-4.704987	BRUTUS
-4.704987	BRYAN
-4.704987	BRYERLY
-4.704987	BU
-4.704987	BUBBLE
-4.704987	BUBBLED
-4.704987	BUBBLES
-4.704987	BUBBLING
-4.704987	BUBU
-4.704987	BUCCA
-4.704987	BUCCANEER
-4.704987	BUCCANEERING
-4.704987	BUCCANEERS
-4.704987	BUCK
-4.704987	BUCK'S
-4.704987	BUCKBOARD
-4.704987	BUCKER
-4.704987	BUCKET
-4.704987	BUCKETFULS
-4.704987	BUCKETS
-4.704987	BUCKEYE
-4.704987	BUCKIN
-4.704987	BUCKINGHAM
-4.704987	BUCKINGHAM'S
-4.704987	BUCKINGHAMSHIRE
-4.704987	BUCKLE
-4.704987	BUCKLED
-4.704987	BUCKLERS
-4.704987	BUCKLES
-4.704987	BUCKLING
-4.704987	BUCKSHOT
-4.704987	BUCKSTONE
-4.704987	BUCKWHEAT
-4.704987	BUCKY
-4.704987	BUD
-4.704987	BUD'S
-4.704987	BUDDHA
-4.704987	BUDDHIST
-4.704987	BUDDIN
-4.704987	BUDDING
-4.704987	BUDGE
-4.704987	BUDS
-4.704987	BUENAVENTURA
-4.704987	BUFF
-4.704987	BUFFALO
-4.704987	BUFFALOES
-4.704987	BUFFERS
-4.704987	BUFFETED
-4.704987	BUFFETING
-4.704987	BUFFOONERIES
-4.704987	BUFFOONERY
-4.704987	BUFFOONS
-4.704987	BUG
-4.704987	BUGABOO
-4.704987	BUGGY
-4.704987	BUGLE
-4.704987	BUGLERS
-4.704987	BUGS
-4.704987	BUILD
-4.704987	BUILDED
-4.704987	BUILDER
-4.704987	BUILDERS
-4.704987	BUILDING
-4.704987	BUILDINGS
-4.704987	BUILDS
-4.704987	BUILT
-4.704987	BUIST
-4.704987	BULB
-4.704987	BULBS
-4.704987	BULFINCH
-4.704987	BULGARIA
-4.704987	BULGARIAN
-4.704987	BULGARIANS
-4.704987	BULGE
-4.704987	BULGER
-4.704987	BULGING
-4.704987	BULK
-4.704987	BULKHEAD
-4.704987	BULKHEAD'LL
-4.704987	BULKS
-4.704987	BULKY
-4.704987	BULL
-4.704987	BULL'S
-4.704987	BULLDOG
-4.704987	BULLET
-4.704987	BULLETIN
-4.704987	BULLETS
-4.704987	BULLFROG
-4.704987	BULLHEAD
-4.704987	BULLIED
-4.704987	BULLING
-4.704987	BULLION
-4.704987	BULLITS
-4.704987	BULLOCK
-4.704987	BULLS
-4.704987	BULLY
-4.704987	BULLYISM
-4.704987	BULWARK
-4.704987	BULWARKS
-4.704987	BUM
-4.704987	BUMBLEBEE
-4.704987	BUMP
-4.704987	BUMPED
-4.704987	BUMPING
-4.704987	BUMPO'S
-4.704987	BUMPS
-4.704987	BUN
-4.704987	BUNCE
-4.704987	BUNCH
-4.704987	BUNCHES
-4.704987	BUNCHIE'S
-4.704987	BUNCO
-4.704987	BUNDEFJORD
-4.704987	BUNDLE
-4.704987	BUNDLED
-4.704987	BUNDLES
-4.704987	BUNG
-4.704987	BUNGALOW
-4.704987	BUNGAY
-4.704987	BUNGLED
-4.704987	BUNGLING
-4.704987	BUNIONS
-4.704987	BUNK
-4.704987	BUNKER
-4.704987	BUNKERS
-4.704987	BUNKING
-4.704987	BUNKS
-4.704987	BUNS
-4.704987	BUNTING
-4.704987	BUNTLINE
-4.704987	BUNTLINE'S
-4.704987	BUONAPARTE'S
-4.704987	BUONDELMONTI
-4.704987	BUOY
-4.704987	BUOYANCY
-4.704987	BUOYANT
-4.704987	BURBERRY
-4.704987	BURDEN
-4.704987	BURDENED
-4.704987	BURDENS
-4.704987	BURDENSOME
-4.704987	BURDOCK
-4.704987	BUREAU
-4.704987	BUREAUCRACY
-4.704987	BUREAUS
-4.704987	BURG
-4.704987	BURGE'S
-4.704987	BURGESS
-4.704987	BURGHERS
-4.704987	BURGLAR
-4.704987	BURGLARIES
-4.704987	BURGLARS
-4.704987	BURGLARY
-4.704987	BURGLE
-4.704987	BURGLED
-4.704987	BURGOMASTERS
-4.704987	BURGS
-4.704987	BURGUNDIAN
-4.704987	BURGUNDY
-4.704987	BURIAL
-4.704987	BURIALS
-4.704987	BURIED
-4.704987	BURLINGTON
-4.704987	BURLY
-4.704987	BURN
-4.704987	BURN'S
-4.704987	BURNED
-4.704987	BURNER
-4.704987	BURNEY
-4.704987	BURNHAM
-4.704987	BURNING
-4.704987	BURNISHED
-4.704987	BURNS
-4.704987	BURNT
-4.704987	BURR
-4.704987	BURRITT
-4.704987	BURROW
-4.704987	BURROWED
-4.704987	BURROWING
-4.704987	BURROWS
-4.704987	BURST
-4.704987	BURSTING
-4.704987	BURSTS
-4.704987	BURTON
-4.704987	BURY
-4.704987	BURYING
-4.704987	BUS
-4.704987	BUSH
-4.704987	BUSHEL
-4.704987	BUSHELS
-4.704987	BUSHES
-4.704987	BUSHIEST
-4.704987	BUSHY
-4.704987	BUSIED
-4.704987	BUSIER
-4.704987	BUSILY
-4.704987	BUSINESS
-4.704987	BUSKIRK'S
-4.704987	BUSTED
-4.704987	BUSTER
-4.704987	BUSTIN
-4.704987	BUSTLE
-4.704987	BUSTLED
-4.704987	BUSTLES
-4.704987	BUSTLING
-4.704987	BUSTS
-4.704987	BUSY
-4.704987	BUSYBODY
-4.704987	BUSYING
-4.704987	BUT
-4.704987	BUTCHER
-4.704987	BUTCHER'S
-4.704987	BUTCHERED
-4.704987	BUTCHERS
-4.704987	BUTCHERY
-4.704987	BUTLER
-4.704987	BUTLERS
-4.704987	BUTT
-4.704987	BUTTE
-4.704987	BUTTED
-4.704987	BUTTER
-4.704987	BUTTERED
-4.704987	BUTTERFLIES
-4.704987	BUTTERFLY
-4.704987	BUTTERFLY'S
-4.704987	BUTTERMILK
-4.704987	BUTTERNUT
-4.704987	BUTTING
-4.704987	BUTTOCKS
-4.704987	BUTTON
-4.704987	BUTTONED
-4.704987	BUTTONHOLE
-4.704987	BUTTONING
-4.704987	BUTTONS
-4.704987	BUTTRESS
-4.704987	BUTTRESSED
-4.704987	BUTTS
-4.704987	BUXOM
-4.704987	BUY
-4.704987	BUYER
-4.704987	BUYING
-4.704987	BUYS
-4.704987	BUZZ
-4.704987	BUZZARD
-4.704987	BUZZED
-4.704987	BUZZER
-4.704987	BUZZING
-4.704987	BY
-4.704987	BYE
-4.704987	BYES
-4.704987	BYGONE
-4.704987	BYGONES
-4.704987	BYRD
-4.704987	BYRNE
-4.704987	BYRON
-4.704987	BYSTANDERS
-4.704987	BYWAYS
-4.704987	BYWORD
-4.704987	C
-4.704987	CA
-4.704987	CAB
-4.704987	CABAL
-4.704987	CABALLERO
-4.704987	CABALS
-4.704987	CABARET
-4.704987	CABBAGE
-4.704987	CABBAGES
-4.704987	CABIN
-4.704987	CABINET
-4.704987	CABINETS
-4.704987	CABINS
-4.704987	CABLE
-4.704987	CABLES
-4.704987	CABMAN
-4.704987	CABO
-4.704987	CABOOSA
-4.704987	CABOOSE
-4.704987	CABS
-4.704987	CABUC
-4.704987	CACAMBO
-4.704987	CACCIAGUIDA
-4.704987	CACHE
-4.704987	CACKLING
-4.704987	CACTUS
-4.704987	CAD
-4.704987	CADAT
-4.704987	CADAVEROUS
-4.704987	CADAVEROUSLY
-4.704987	CADDIS
-4.704987	CADENCES
-4.704987	CADEROUSSE
-4.704987	CADET
-4.704987	CADIS
-4.704987	CADIZ
-4.704987	CADMUS
-4.704987	CADOR
-4.704987	CADRAN
-4.704987	CAE
-4.704987	CAEN
-4.704987	CAESAR
-4.704987	CAESAR'S
-4.704987	CAFE
-4.704987	CAFF
-4.704987	CAFFRES
-4.704987	CAGE
-4.704987	CAGES
-4.704987	CAHUSAC
-4.704987	CAIN
-4.704987	CAIN'T
-4.704987	CAIRNGORM
-4.704987	CAIRO
-4.704987	CAISSON
-4.704987	CAISSONS
-4.704987	CAJOLE
-4.704987	CAJOLERY
-4.704987	CAKE
-4.704987	CAKED
-4.704987	CAKES
-4.704987	CALABRIAN
-4.704987	CALAHORRA
-4.704987	CALAIS
-4.704987	CALAMITIES
-4.704987	CALAMITOUS
-4.704987	CALAMITY
-4.704987	CALASH
-4.704987	CALCIUM
-4.704987	CALCULATE
-4.704987	CALCULATED
-4.704987	CALCULATING
-4.704987	CALCULATION
-4.704987	CALCULATIONS
-4.704987	CALCULATORS
-4.704987	CALCULI
-4.704987	CALCULUS
-4.704987	CALCUTTA
-4.704987	CALDECOTT
-4.704987	CALDRON
-4.704987	CALDRONS
-4.704987	CALECHE
-4.704987	CALENDAR
-4.704987	CALF
-4.704987	CALF'S
-4.704987	CALFUCCI
-4.704987	CALHOUN
-4.704987	CALHOUN'S
-4.704987	CALIBAN
-4.704987	CALIBER
-4.704987	CALIBRE
-4.704987	CALICO
-4.704987	CALIDIS
-4.704987	CALIFORNIA
-4.704987	CALIFORNIAN
-4.704987	CALIPH
-4.704987	CALIPHATE
-4.704987	CALKER
-4.704987	CALL
-4.704987	CALL'D
-4.704987	CALLED
-4.704987	CALLER
-4.704987	CALLERS
-4.704987	CALLING
-4.704987	CALLOUS
-4.704987	CALLOUSES
-4.704987	CALLOW
-4.704987	CALLS
-4.704987	CALLUM
-4.704987	CALM
-4.704987	CALMED
-4.704987	CALMER
-4.704987	CALMING
-4.704987	CALMLY
-4.704987	CALMNESS
-4.704987	CALOCHORTUS
-4.704987	CALORIES
-4.704987	CALORIFIC
-4.704987	CALOS
-4.704987	CALTHORPE
-4.704987	CALUMNIATED
-4.704987	CALUMNIES
-4.704987	CALUMNY
-4.704987	CALVES
-4.704987	CAMACHO
-4.704987	CAMACHO'S
-4.704987	CAMBRIC
-4.704987	CAMBRIDGE
-4.704987	CAME
-4.704987	CAMEL
-4.704987	CAMEL'S
-4.704987	CAMELS
-4.704987	CAMEO
-4.704987	CAMERA
-4.704987	CAMERAS
-4.704987	CAMERON
-4.704987	CAMEST
-4.704987	CAMILLA
-4.704987	CAMOENS
-4.704987	CAMORRA
-4.704987	CAMOUFLAGE
-4.704987	CAMP
-4.704987	CAMP'S
-4.704987	CAMPAIGN
-4.704987	CAMPAIGNER
-4.704987	CAMPAIGNING
-4.704987	CAMPAIGNS
-4.704987	CAMPBELL
-4.704987	CAMPBELL'S
-4.704987	CAMPBELLS
-4.704987	CAMPBELLTOWN
-4.704987	CAMPDEN
-4.704987	CAMPEACHY
-4.704987	CAMPED
-4.704987	CAMPET
-4.704987	CAMPFIRE
-4.704987	CAMPFIRES
-4.704987	CAMPING
-4.704987	CAMPONGS
-4.704987	CAMPS
-4.704987	CAMPSITE
-4.704987	CAMPUS
-4.704987	CAN
-4.704987	CAN'T
-4.704987	CANA
-4.704987	CANAAN
-4.704987	CANAANITES
-4.704987	CANADA
-4.704987	CANADAS
-4.704987	CANADIAN
-4.704987	CANAL
-4.704987	CANALS
-4.704987	CANARIES
-4.704987	CANARY
-4.704987	CANAVERAL
-4.704987	CANCEL
-4.704987	CANCELLED
-4.704987	CANCER
-4.704987	CANDELABRA
-4.704987	CANDIA
-4.704987	CANDID
-4.704987	CANDIDACY
-4.704987	CANDIDATE
-4.704987	CANDIDATES
-4.704987	CANDIDE
-4.704987	CANDIDLY
-4.704987	CANDIED
-4.704987	CANDIES
-4.704987	CANDLE
-4.704987	CANDLELIGHT
-4.704987	CANDLEMAS
-4.704987	CANDLES
-4.704987	CANDLESTICK
-4.704987	CANDLESTICKS
-4.704987	CANDOR
-4.704987	CANDOUR
-4.704987	CANDY
-4.704987	CANE
-4.704987	CANED
-4.704987	CANES
-4.704987	CANICAN
-4.704987	CANINE
-4.704987	CANKER
-4.704987	CANNED
-4.704987	CANNERIES
-4.704987	CANNIBAL
-4.704987	CANNIBALISM
-4.704987	CANNIBALS
-4.704987	CANNON
-4.704987	CANNONADE
-4.704987	CANNONADING
-4.704987	CANNONBALL
-4.704987	CANNONS
-4.704987	CANNOT
-4.704987	CANOE
-4.704987	CANOEIST
-4.704987	CANOEISTS
-4.704987	CANOES
-4.704987	CANON
-4.704987	CANONIZED
-4.704987	CANONS
-4.704987	CANOPIED
-4.704987	CANOPY
-4.704987	CANS
-4.704987	CANST
-4.704987	CANT
-4.704987	CANTAB
-4.704987	CANTEEN
-4.704987	CANTER
-4.704987	CANTERBURY
-4.704987	CANTERVILLE
-4.704987	CANTILENA
-4.704987	CANTON
-4.704987	CANTONMENT
-4.704987	CANVAS
-4.704987	CANVASS
-4.704987	CANVASSING
-4.704987	CANYON
-4.704987	CANYONS
-4.704987	CAP
-4.704987	CAP'N
-4.704987	CAPABILITIES
-4.704987	CAPABILITY
-4.704987	CAPABLE
-4.704987	CAPACIOUS
-4.704987	CAPACITIES
-4.704987	CAPACITY
-4.704987	CAPE
-4.704987	CAPERING
-4.704987	CAPERS
-4.704987	CAPES
-4.704987	CAPGAROUPE
-4.704987	CAPILLARIES
-4.704987	CAPITAL
-4.704987	CAPITALISM
-4.704987	CAPITALIST
-4.704987	CAPITALISTS
-4.704987	CAPITALLY
-4.704987	CAPITALS
-4.704987	CAPITAN
-4.704987	CAPITOL
-4.704987	CAPO
-4.704987	CAPONSACCO
-4.704987	CAPPADOCIA
-4.704987	CAPPADOCIAN
-4.704987	CAPPED
-4.704987	CAPRI
-4.704987	CAPRICE
-4.704987	CAPRICES
-4.704987	CAPRICIOUS
-4.704987	CAPRICIOUSLY
-4.704987	CAPRICORN
-4.704987	CAPRON
-4.704987	CAPRON'S
-4.704987	CAPS
-4.704987	CAPSIZE
-4.704987	CAPSIZED
-4.704987	CAPSIZING
-4.704987	CAPSULES
-4.704987	CAPTAIN
-4.704987	CAPTAIN'S
-4.704987	CAPTAING
-4.704987	CAPTAINS
-4.704987	CAPTING
-4.704987	CAPTION
-4.704987	CAPTIOUS
-4.704987	CAPTIVATE
-4.704987	CAPTIVATED
-4.704987	CAPTIVATING
-4.704987	CAPTIVATION
-4.704987	CAPTIVE
-4.704987	CAPTIVES
-4.704987	CAPTIVITY
-4.704987	CAPTOR
-4.704987	CAPTORS
-4.704987	CAPTURE
-4.704987	CAPTURED
-4.704987	CAPTURES
-4.704987	CAPTURING
-4.704987	CAR
-4.704987	CARABINE
-4.704987	CARAPACES
-4.704987	CARATS
-4.704987	CARAVAN
-4.704987	CARAVANS
-4.704987	CARAVANSARY
-4.704987	CARAWAY
-4.704987	CARBIDE
-4.704987	CARBINE
-4.704987	CARBINEER
-4.704987	CARBINES
-4.704987	CARBON
-4.704987	CARBONATE
-4.704987	CARBONIFEROUS
-4.704987	CARBONIZED
-4.704987	CARBUNCLES
-4.704987	CARCASS
-4.704987	CARCASSES
-4.704987	CARCHEMISH
-4.704987	CARD
-4.704987	CARDBOARD
-4.704987	CARDED
-4.704987	CARDENIO
-4.704987	CARDENIO'S
-4.704987	CARDINAL
-4.704987	CARDINAL'S
-4.704987	CARDS
-4.704987	CARE
-4.704987	CARED
-4.704987	CAREER
-4.704987	CAREERING
-4.704987	CAREFREE
-4.704987	CAREFUL
-4.704987	CAREFULLY
-4.704987	CAREFULNESS
-4.704987	CARELESS
-4.704987	CARELESSLY
-4.704987	CARELESSNESS
-4.704987	CARES
-4.704987	CARESS
-4.704987	CARESSED
-4.704987	CARESSES
-4.704987	CARESSING
-4.704987	CARESSINGLY
-4.704987	CARETAKER
-4.704987	CAREW
-4.704987	CAREWORN
-4.704987	CAREY
-4.704987	CAREYS
-4.704987	CARGO
-4.704987	CARGOES
-4.704987	CARICATURE
-4.704987	CARICATURES
-4.704987	CARING
-4.704987	CARLETON
-4.704987	CARLING
-4.704987	CARLING'S
-4.704987	CARLINI
-4.704987	CARLINI'S
-4.704987	CARLISLE
-4.704987	CARLO
-4.704987	CARLO'S
-4.704987	CARLOS
-4.704987	CARLOVINGIAN
-4.704987	CARLTON
-4.704987	CARLYLE
-4.704987	CARLYLE'S
-4.704987	CARMATHON
-4.704987	CARMES
-4.704987	CARMINE
-4.704987	CARMODY
-4.704987	CARNAGE
-4.704987	CARNAL
-4.704987	CARNEGIE
-4.704987	CARNERO
-4.704987	CARNIVAL
-4.704987	CARNIVOROUS
-4.704987	CAROL
-4.704987	CAROLINA
-4.704987	CAROLINAS
-4.704987	CAROLINE
-4.704987	CAROLINE'S
-4.704987	CAROLING
-4.704987	CAROLLINGS
-4.704987	CAROLS
-4.704987	CAROUSALS
-4.704987	CAROUSE
-4.704987	CARP
-4.704987	CARPENTER
-4.704987	CARPENTERS
-4.704987	CARPET
-4.704987	CARPETED
-4.704987	CARPETING
-4.704987	CARPETS
-4.704987	CARRASCO
-4.704987	CARRIAGE
-4.704987	CARRIAGES
-4.704987	CARRIED
-4.704987	CARRIER
-4.704987	CARRIES
-4.704987	CARRINGTON
-4.704987	CARRINGTONS
-4.704987	CARRION
-4.704987	CARROT
-4.704987	CARROTS
-4.704987	CARROZZA
-4.704987	CARRUTHERS
-4.704987	CARRY
-4.704987	CARRYING
-4.704987	CARS
-4.704987	CARSON
-4.704987	CART
-4.704987	CARTED
-4.704987	CARTEL
-4.704987	CARTER
-4.704987	CARTER'S
-4.704987	CARTERET
-4.704987	CARTERS
-4.704987	CARTHAGE
-4.704987	CARTHAGENA
-4.704987	CARTIER
-4.704987	CARTOUCHE
-4.704987	CARTOUCHES
-4.704987	CARTRIDGE
-4.704987	CARTRIDGES
-4.704987	CARTS
-4.704987	CARTWHEEL
-4.704987	CARVE
-4.704987	CARVED
-4.704987	CARVEN
-4.704987	CARVING
-4.704987	CARVINGS
-4.704987	CARYATIDS
-4.704987	CARYOE
-4.704987	CASA
-4.704987	CASABLANCA
-4.704987	CASAL
-4.704987	CASCADE
-4.704987	CASCADING
-4.704987	CASE
-4.704987	CASED
-4.704987	CASEMENT
-4.704987	CASES
-4.704987	CASH
-4.704987	CASHIER
-4.704987	CASHIER'S
-4.704987	CASHMERE
-4.704987	CASIMIR
-4.704987	CASING
-4.704987	CASK
-4.704987	CASKET
-4.704987	CASPAR
-4.704987	CASQUE
-4.704987	CASS
-4.704987	CASSANDRA
-4.704987	CASSIAR
-4.704987	CASSIDYS
-4.704987	CASSIUS
-4.704987	CASSOCK
-4.704987	CASSON'S
-4.704987	CASSY
-4.704987	CAST
-4.704987	CASTE
-4.704987	CASTERBRIDGE
-4.704987	CASTILIAN
-4.704987	CASTING
-4.704987	CASTLE
-4.704987	CASTLEMAINE
-4.704987	CASTLES
-4.704987	CASTON
-4.704987	CASTOR
-4.704987	CASTORS
-4.704987	CASTRATION
-4.704987	CASTS
-4.704987	CASUAL
-4.704987	CASUALLY
-4.704987	CASUALTIES
-4.704987	CASUALTY
-4.704987	CASUISTRY
-4.704987	CAT
-4.704987	CAT'S
-4.704987	CATACOMB
-4.704987	CATALOGED
-4.704987	CATALOGUE
-4.704987	CATALOGUED
-4.704987	CATALONIA
-4.704987	CATALYZED
-4.704987	CATAMENIAL
-4.704987	CATARRH
-4.704987	CATARRHAL
-4.704987	CATASTROPHE
-4.704987	CATASTROPHES
-4.704987	CATCH
-4.704987	CATCH'D
-4.704987	CATCHER
-4.704987	CATCHES
-4.704987	CATCHING
-4.704987	CATCHWORDS
-4.704987	CATECHISED
-4.704987	CATECHISM
-4.704987	CATECHUMEN
-4.704987	CATERPILLAR
-4.704987	CATERPILLAR'S
-4.704987	CATERPILLARS
-4.704987	CATFISH
-4.704987	CATHARTIC
-4.704987	CATHAY
-4.704987	CATHEDRAL
-4.704987	CATHERINE
-4.704987	CATHERINE'S
-4.704987	CATHISMA
-4.704987	CATHOLIC
-4.704987	CATHOLICISM
-4.704987	CATHOLICITY
-4.704987	CATHOLICS
-4.704987	CATO
-4.704987	CATS
-4.704987	CATTARAUGUS
-4.704987	CATTLE
-4.704987	CAUCASIAN
-4.704987	CAUGHT
-4.704987	CAULDRON
-4.704987	CAULDRONS
-4.704987	CAUSA
-4.704987	CAUSAL
-4.704987	CAUSATION
-4.704987	CAUSE
-4.704987	CAUSED
-4.704987	CAUSELESS
-4.704987	CAUSES
-4.704987	CAUSEWAY
-4.704987	CAUSING
-4.704987	CAUSTIC
-4.704987	CAUTION
-4.704987	CAUTIONED
-4.704987	CAUTIOUS
-4.704987	CAUTIOUSLY
-4.704987	CAUZEE
-4.704987	CAVA
-4.704987	CAVAIGNAC
-4.704987	CAVALCADE
-4.704987	CAVALCANTI
-4.704987	CAVALCANTI'S
-4.704987	CAVALIER
-4.704987	CAVALIERS
-4.704987	CAVALRY
-4.704987	CAVE
-4.704987	CAVELL
-4.704987	CAVELL'S
-4.704987	CAVERN
-4.704987	CAVERNS
-4.704987	CAVES
-4.704987	CAVIARS
-4.704987	CAVIL
-4.704987	CAVITIES
-4.704987	CAVITY
-4.704987	CAWL
-4.704987	CAWN
-4.704987	CAXTON
-4.704987	CAYOS
-4.704987	CAYUSE
-4.704987	CEASE
-4.704987	CEASED
-4.704987	CEASELESS
-4.704987	CEASELESSLY
-4.704987	CEASES
-4.704987	CEASING
-4.704987	CECILY
-4.704987	CEDAR
-4.704987	CEDARS
-4.704987	CEDE
-4.704987	CEDRIC
-4.704987	CEILING
-4.704987	CEILINGED
-4.704987	CEILINGS
-4.704987	CELEBRATE
-4.704987	CELEBRATED
-4.704987	CELEBRATING
-4.704987	CELEBRATION
-4.704987	CELEBRATIONS
-4.704987	CELEBRITIES
-4.704987	CELERITY
-4.704987	CELERY
-4.704987	CELESTIAL
-4.704987	CELESTIN
-4.704987	CELIA
-4.704987	CELIBACY
-4.704987	CELIMENE
-4.704987	CELL
-4.704987	CELLAR
-4.704987	CELLARED
-4.704987	CELLARS
-4.704987	CELLINIS
-4.704987	CELLS
-4.704987	CELLULOSE
-4.704987	CELT
-4.704987	CELTIC
-4.704987	CELTS
-4.704987	CEMENT
-4.704987	CEMETERY
-4.704987	CENSOR
-4.704987	CENSORIOUS
-4.704987	CENSORIOUSNESS
-4.704987	CENSORS
-4.704987	CENSORSHIP
-4.704987	CENSURE
-4.704987	CENSURED
-4.704987	CENSUS
-4.704987	CENT
-4.704987	CENTAUR
-4.704987	CENTENNIAL
-4.704987	CENTER
-4.704987	CENTERED
-4.704987	CENTERS
-4.704987	CENTERVILLE
-4.704987	CENTHRAL
-4.704987	CENTIGRADE
-4.704987	CENTIMETERS
-4.704987	CENTIPEDAL
-4.704987	CENTIPEDE
-4.704987	CENTIPEDES
-4.704987	CENTRAL
-4.704987	CENTRE
-4.704987	CENTRED
-4.704987	CENTREPIECE
-4.704987	CENTRES
-4.704987	CENTRIC
-4.704987	CENTRICS
-4.704987	CENTS
-4.704987	CENTURIES
-4.704987	CENTURION
-4.704987	CENTURIONS
-4.704987	CENTURY
-4.704987	CERBERUS
-4.704987	CERCHI
-4.704987	CEREAL
-4.704987	CEREALS
-4.704987	CEREBRAL
-4.704987	CEREBRUM
-4.704987	CEREMONIAL
-4.704987	CEREMONIALS
-4.704987	CEREMONIES
-4.704987	CEREMONIOUS
-4.704987	CEREMONY
-4.704987	CERES
-4.704987	CERTAIN
-4.704987	CERTAINLY
-4.704987	CERTAINTY
-4.704987	CERTIFICATE
-4.704987	CERTIFICATES
-4.704987	CESSATION
-4.704987	CESSPOOL
-4.704987	CETACEAN
-4.704987	CETACEAN'S
-4.704987	CETACEANS
-4.704987	CETERA
-4.704987	CEYLON
-4.704987	CEYLON'S
-4.704987	CHABLIS
-4.704987	CHAFED
-4.704987	CHAFF
-4.704987	CHAFFED
-4.704987	CHAFFINCH
-4.704987	CHAFING
-4.704987	CHAGRIN
-4.704987	CHAILLU
-4.704987	CHAIN
-4.704987	CHAINED
-4.704987	CHAINING
-4.704987	CHAINLESS
-4.704987	CHAINS
-4.704987	CHAIR
-4.704987	CHAIRMAN
-4.704987	CHAIRS
-4.704987	CHAISE
-4.704987	CHALDAEA
-4.704987	CHALK
-4.704987	CHALKED
-4.704987	CHALLENGE
-4.704987	CHALLENGED
-4.704987	CHALLENGES
-4.704987	CHALLENGING
-4.704987	CHALONER
-4.704987	CHAMBER
-4.704987	CHAMBERLAIN
-4.704987	CHAMBERMAID
-4.704987	CHAMBERS
-4.704987	CHAMELEON
-4.704987	CHAMOIS
-4.704987	CHAMP
-4.704987	CHAMPAGNE
-4.704987	CHAMPION
-4.704987	CHAMPIONS
-4.704987	CHAMPIONSHIP
-4.704987	CHAMPLAIN
-4.704987	CHAMPNEYS
-4.704987	CHAMPS
-4.704987	CHANCE
-4.704987	CHANCED
-4.704987	CHANCEL
-4.704987	CHANCELLOR
-4.704987	CHANCELLOR'S
-4.704987	CHANCELLORSHIP
-4.704987	CHANCELLORSVILLE
-4.704987	CHANCERY
-4.704987	CHANCES
-4.704987	CHANCING
-4.704987	CHANDELIER
-4.704987	CHANDELIERS
-4.704987	CHANG
-4.704987	CHANGE
-4.704987	CHANGEABLE
-4.704987	CHANGEABLENESS
-4.704987	CHANGED
-4.704987	CHANGEFUL
-4.704987	CHANGES
-4.704987	CHANGETH
-4.704987	CHANGING
-4.704987	CHANNEL
-4.704987	CHANNELS
-4.704987	CHANNING
-4.704987	CHANNINGS
-4.704987	CHANSONS
-4.704987	CHANT
-4.704987	CHANTED
-4.704987	CHANTELOUP
-4.704987	CHANTICLEER
-4.704987	CHANTING
-4.704987	CHANTREY
-4.704987	CHANTS
-4.704987	CHANTY
-4.704987	CHANTY'S
-4.704987	CHANVRERIE
-4.704987	CHAOS
-4.704987	CHAOTIC
-4.704987	CHAP
-4.704987	CHAPARRAL
-4.704987	CHAPEAU
-4.704987	CHAPEL
-4.704987	CHAPERON
-4.704987	CHAPERONAGE
-4.704987	CHAPERONE
-4.704987	CHAPLAIN
-4.704987	CHAPLETS
-4.704987	CHAPPARAL
-4.704987	CHAPPING
-4.704987	CHAPS
-4.704987	CHAPTER
-4.704987	CHAPTERS
-4.704987	CHARACTER
-4.704987	CHARACTERISTIC
-4.704987	CHARACTERISTICS
-4.704987	CHARACTERIZATION
-4.704987	CHARACTERIZE
-4.704987	CHARACTERIZED
-4.704987	CHARACTERS
-4.704987	CHARAN
-4.704987	CHARCOAL
-4.704987	CHARCOT
-4.704987	CHARE
-4.704987	CHARGE
-4.704987	CHARGED
-4.704987	CHARGER
-4.704987	CHARGES
-4.704987	CHARGING
-4.704987	CHARING
-4.704987	CHARIOT
-4.704987	CHARIOTEER
-4.704987	CHARIOTS
-4.704987	CHARITABLE
-4.704987	CHARITABLY
-4.704987	CHARITIES
-4.704987	CHARITY
-4.704987	CHARLATAN
-4.704987	CHARLATANISM
-4.704987	CHARLEMAGNE
-4.704987	CHARLES
-4.704987	CHARLES'S
-4.704987	CHARLESTOWN
-4.704987	CHARLEY
-4.704987	CHARLEY'S
-4.704987	CHARLIE
-4.704987	CHARLOTTE
-4.704987	CHARLOTTE'S
-4.704987	CHARLOTTETOWN
-4.704987	CHARM
-4.704987	CHARMED
-4.704987	CHARMER
-4.704987	CHARMING
-4.704987	CHARMING'S
-4.704987	CHARMINGLY
-4.704987	CHARMS
-4.704987	CHAROLAIS
-4.704987	CHARRED
-4.704987	CHART
-4.704987	CHARTER
-4.704987	CHARTERED
-4.704987	CHARTERS
-4.704987	CHARTING
-4.704987	CHARTIST
-4.704987	CHARTS
-4.704987	CHASE
-4.704987	CHASED
-4.704987	CHASES
-4.704987	CHASING
-4.704987	CHASKEY
-4.704987	CHASM
-4.704987	CHASMS
-4.704987	CHASTE
-4.704987	CHASTENED
-4.704987	CHASTISED
-4.704987	CHASTISEMENT
-4.704987	CHASTITY
-4.704987	CHAT
-4.704987	CHATEAU
-4.704987	CHATEAUBRIAND
-4.704987	CHATHAM
-4.704987	CHATTED
-4.704987	CHATTEL
-4.704987	CHATTELS
-4.704987	CHATTER
-4.704987	CHATTERER
-4.704987	CHATTERERS
-4.704987	CHATTERING
-4.704987	CHATTERS
-4.704987	CHATTING
-4.704987	CHATTY
-4.704987	CHAUFFEUR
-4.704987	CHAUVELIN
-4.704987	CHAUVELIN'S
-4.704987	CHEAP
-4.704987	CHEAPENED
-4.704987	CHEAPER
-4.704987	CHEAPEST
-4.704987	CHEAPLY
-4.704987	CHEAPSIDE
-4.704987	CHEAT
-4.704987	CHEATED
-4.704987	CHEBEC
-4.704987	CHEBEC'S
-4.704987	CHECHEN
-4.704987	CHECHENS
-4.704987	CHECK
-4.704987	CHECKED
-4.704987	CHECKER
-4.704987	CHECKERBERRY
-4.704987	CHECKERED
-4.704987	CHECKING
-4.704987	CHECKS
-4.704987	CHEDDARS
-4.704987	CHEE
-4.704987	CHEEK
-4.704987	CHEEKBONES
-4.704987	CHEEKED
-4.704987	CHEEKS
-4.704987	CHEER
-4.704987	CHEERED
-4.704987	CHEERFUL
-4.704987	CHEERFULLY
-4.704987	CHEERFULNESS
-4.704987	CHEERILY
-4.704987	CHEERING
-4.704987	CHEERLESS
-4.704987	CHEERS
-4.704987	CHEERY
-4.704987	CHEESE
-4.704987	CHEESES
-4.704987	CHEF
-4.704987	CHEFS
-4.704987	CHEIROPOTAMUS
-4.704987	CHELMON
-4.704987	CHELTENHAM
-4.704987	CHEMICAL
-4.704987	CHEMICALS
-4.704987	CHEMIST
-4.704987	CHEMISTRY
-4.704987	CHEMISTS
-4.704987	CHENG
-4.704987	CHEQUE
-4.704987	CHEQUERED
-4.704987	CHEQUERS
-4.704987	CHER
-4.704987	CHEREAS
-4.704987	CHERISH
-4.704987	CHERISHED
-4.704987	CHERISHING
-4.704987	CHEROKEE
-4.704987	CHERRIES
-4.704987	CHERRY
-4.704987	CHERSON
-4.704987	CHERUB
-4.704987	CHERUBIM
-4.704987	CHESAPEAKE
-4.704987	CHESHIRE
-4.704987	CHESHIRE'S
-4.704987	CHESS
-4.704987	CHEST
-4.704987	CHESTED
-4.704987	CHESTER
-4.704987	CHESTNUT
-4.704987	CHESTNUTS
-4.704987	CHESTS
-4.704987	CHEVALIER
-4.704987	CHEVREUSE
-4.704987	CHEW'D
-4.704987	CHEWED
-4.704987	CHEWING
-4.704987	CHEYLAS
-4.704987	CHIAJA
-4.704987	CHIANA
-4.704987	CHIANTI
-4.704987	CHICAGO
-4.704987	CHICANERY
-4.704987	CHICHESTER
-4.704987	CHICK
-4.704987	CHICKADEE
-4.704987	CHICKATAWBUT
-4.704987	CHICKEN
-4.704987	CHICKENS
-4.704987	CHICKERBERRY
-4.704987	CHICKS
-4.704987	CHICKWEED
-4.704987	CHIDE
-4.704987	CHIDED
-4.704987	CHIDING
-4.704987	CHIEF
-4.704987	CHIEFLY
-4.704987	CHIEFS
-4.704987	CHIEFTAIN
-4.704987	CHIEFTAINS
-4.704987	CHIFFONNIERE
-4.704987	CHIFFONNIERS
-4.704987	CHIFUL
-4.704987	CHIKAYORAZU
-4.704987	CHIKU
-4.704987	CHILD
-4.704987	CHILD'S
-4.704987	CHILDBIRTH
-4.704987	CHILDER
-4.704987	CHILDHOOD
-4.704987	CHILDHOOD'S
-4.704987	CHILDISH
-4.704987	CHILDISHNESS
-4.704987	CHILDLESS
-4.704987	CHILDLIKE
-4.704987	CHILDREN
-4.704987	CHILDREN'S
-4.704987	CHILDS
-4.704987	CHILE
-4.704987	CHILL
-4.704987	CHILLED
-4.704987	CHILLEN
-4.704987	CHILLING
-4.704987	CHILLY
-4.704987	CHILTERN
-4.704987	CHIMAERA
-4.704987	CHIMBLEY
-4.704987	CHIME
-4.704987	CHIMED
-4.704987	CHIMERA
-4.704987	CHIMERICAL
-4.704987	CHIMES
-4.704987	CHIMINGS
-4.704987	CHIMNEY
-4.704987	CHIMNEYS
-4.704987	CHIMPANZEE
-4.704987	CHIN
-4.704987	CHINA
-4.704987	CHINAMAN
-4.704987	CHINAMEN
-4.704987	CHINESE
-4.704987	CHING
-4.704987	CHINIK
-4.704987	CHINK
-4.704987	CHINKED
-4.704987	CHINKING
-4.704987	CHINKS
-4.704987	CHINOOK
-4.704987	CHINS
-4.704987	CHIP
-4.704987	CHIPPEWAS
-4.704987	CHIPS
-4.704987	CHIRK
-4.704987	CHIRON
-4.704987	CHIRP
-4.704987	CHIRPED
-4.704987	CHIRPING
-4.704987	CHIRRUP
-4.704987	CHISEL
-4.704987	CHISELING
-4.704987	CHISELLED
-4.704987	CHIU
-4.704987	CHIUSI
-4.704987	CHIVALRIC
-4.704987	CHIVALROUS
-4.704987	CHIVALROUSLY
-4.704987	CHIVALRY
-4.704987	CHLOE
-4.704987	CHLORIDE
-4.704987	CHOCOLATE
-4.704987	CHOICE
-4.704987	CHOICEST
-4.704987	CHOIR
-4.704987	CHOISY
-4.704987	CHOKE
-4.704987	CHOKED
-4.704987	CHOKICHI
-4.704987	CHOKICHI'S
-4.704987	CHOKING
-4.704987	CHOOSE
-4.704987	CHOOSING
-4.704987	CHOP
-4.704987	CHOPIN
-4.704987	CHOPIN'S
-4.704987	CHOPPED
-4.704987	CHOPPY
-4.704987	CHOPS
-4.704987	CHORAL
-4.704987	CHORD
-4.704987	CHORDS
-4.704987	CHORES
-4.704987	CHORUS
-4.704987	CHORUSED
-4.704987	CHOSE
-4.704987	CHOSEN
-4.704987	CHOW
-4.704987	CHOWTON
-4.704987	CHOZUBACHI
-4.704987	CHRIS
-4.704987	CHRIST
-4.704987	CHRIST'S
-4.704987	CHRISTENDOM
-4.704987	CHRISTENED
-4.704987	CHRISTENING
-4.704987	CHRISTI
-4.704987	CHRISTIAN
-4.704987	CHRISTIANIA
-4.704987	CHRISTIANITY
-4.704987	CHRISTIANIZATION
-4.704987	CHRISTIANIZING
-4.704987	CHRISTIANS
-4.704987	CHRISTINA
-4.704987	CHRISTMAS
-4.704987	CHRISTOPHER
-4.704987	CHROMATIC
-4.704987	CHRONIC
-4.704987	CHRONICALLY
-4.704987	CHRONICLE
-4.704987	CHRONICLED
-4.704987	CHRONICLER
-4.704987	CHRONICLES
-4.704987	CHRONICLING
-4.704987	CHRONOLOGY
-4.704987	CHRONOMETER
-4.704987	CHRYSALIS
-4.704987	CHRYSANTHEMUMS
-4.704987	CHRYSOSTOM
-4.704987	CHRYSTAL
-4.704987	CHUB
-4.704987	CHUBBY
-4.704987	CHUCK
-4.704987	CHUCK'S
-4.704987	CHUCKED
-4.704987	CHUCKLE
-4.704987	CHUCKLED
-4.704987	CHUCKLING
-4.704987	CHUM
-4.704987	CHUMS
-4.704987	CHUNES
-4.704987	CHUNK
-4.704987	CHUNKS
-4.704987	CHUNKY
-4.704987	CHUPIN
-4.704987	CHUPIN'S
-4.704987	CHURCH
-4.704987	CHURCH'S
-4.704987	CHURCHES
-4.704987	CHURCHILL
-4.704987	CHURCHILL'S
-4.704987	CHURCHMAN
-4.704987	CHURCHWARDEN
-4.704987	CHURCHWARDEN'S
-4.704987	CHURCHWARDENS
-4.704987	CHURCHYARD
-4.704987	CHURLISH
-4.704987	CHURLISHLY
-4.704987	CHURN
-4.704987	CHURNED
-4.704987	CHURNING
-4.704987	CHURNS
-4.704987	CHUSEST
-4.704987	CHUTE
-4.704987	CICADAS
-4.704987	CICATRIZATION
-4.704987	CICERO
-4.704987	CICERONE
-4.704987	CIDER
-4.704987	CIGAR
-4.704987	CIGARET
-4.704987	CIGARETS
-4.704987	CIGARETTE
-4.704987	CIGARETTES
-4.704987	CIGARS
-4.704987	CILICIA
-4.704987	CIMETER
-4.704987	CINCINNATI
-4.704987	CINCINNATUS
-4.704987	CINCTURE
-4.704987	CINCTURED
-4.704987	CINCTURES
-4.704987	CINDER
-4.704987	CINDERELLA
-4.704987	CINDERS
-4.704987	CINNAMON
-4.704987	CINQUE
-4.704987	CIPHER
-4.704987	CIRCASSIA
-4.704987	CIRCASSIAN
-4.704987	CIRCE
-4.704987	CIRCLE
-4.704987	CIRCLED
-4.704987	CIRCLES
-4.704987	CIRCLING
-4.704987	CIRCUIT
-4.704987	CIRCUITED
-4.704987	CIRCUITS
-4.704987	CIRCULAR
-4.704987	CIRCULARS
-4.704987	CIRCULATED
-4.704987	CIRCULATING
-4.704987	CIRCULATION
-4.704987	CIRCUMFERENCE
-4.704987	CIRCUMFERENCES
-4.704987	CIRCUMLOCUTION
-4.704987	CIRCUMSCRIBED
-4.704987	CIRCUMSCRIBING
-4.704987	CIRCUMSCRIPTION
-4.704987	CIRCUMSPECT
-4.704987	CIRCUMSPECTION
-4.704987	CIRCUMSTANCE
-4.704987	CIRCUMSTANCED
-4.704987	CIRCUMSTANCES
-4.704987	CIRCUMSTANTIAL
-4.704987	CIRCUMVALLATION
-4.704987	CIRCUMVALLATIONS
-4.704987	CIRCUMVENT
-4.704987	CIRCUMVENTION
-4.704987	CIRCUS
-4.704987	CIRCUSES
-4.704987	CIRQUES
-4.704987	CISTERN
-4.704987	CISTERNS
-4.704987	CITADEL
-4.704987	CITE
-4.704987	CITED
-4.704987	CITIES
-4.704987	CITING
-4.704987	CITIZEN
-4.704987	CITIZEN'S
-4.704987	CITIZENESS
-4.704987	CITIZENS
-4.704987	CITIZENSHIP
-4.704987	CITOYEN
-4.704987	CITOYEN'S
-4.704987	CITRONS
-4.704987	CITY
-4.704987	CITY'S
-4.704987	CIVIC
-4.704987	CIVIL
-4.704987	CIVILIAN
-4.704987	CIVILISATION
-4.704987	CIVILISED
-4.704987	CIVILISING
-4.704987	CIVILITIES
-4.704987	CIVILITY
-4.704987	CIVILIZATION
-4.704987	CIVILIZATIONS
-4.704987	CIVILIZED
-4.704987	CIVILLY
-4.704987	CLAD
-4.704987	CLAIM
-4.704987	CLAIMANT
-4.704987	CLAIMED
-4.704987	CLAIMING
-4.704987	CLAIMS
-4.704987	CLAIR
-4.704987	CLAIR'S
-4.704987	CLAIRVOYANCE
-4.704987	CLAIRVOYANT
-4.704987	CLAM
-4.704987	CLAMBER
-4.704987	CLAMBERED
-4.704987	CLAMBERING
-4.704987	CLAMMY
-4.704987	CLAMOR
-4.704987	CLAMOROUS
-4.704987	CLAMOROUSLY
-4.704987	CLAMORS
-4.704987	CLAMOUR
-4.704987	CLAMOURED
-4.704987	CLAMOURING
-4.704987	CLAMOURS
-4.704987	CLAMPED
-4.704987	CLAMPS
-4.704987	CLAMS
-4.704987	CLAN
-4.704987	CLANCHARLIE
-4.704987	CLANDESTINE
-4.704987	CLANE
-4.704987	CLANG
-4.704987	CLANGING
-4.704987	CLANGOR
-4.704987	CLANK
-4.704987	CLANKING
-4.704987	CLANS
-4.704987	CLANSMEN
-4.704987	CLAP
-4.704987	CLAPBAM
-4.704987	CLAPHAM
-4.704987	CLAPPED
-4.704987	CLAPPER
-4.704987	CLAPPING
-4.704987	CLAPT
-4.704987	CLARA
-4.704987	CLARENCE
-4.704987	CLARENCY
-4.704987	CLARET
-4.704987	CLARICE
-4.704987	CLARION
-4.704987	CLARIONS
-4.704987	CLARITY
-4.704987	CLARK
-4.704987	CLARKE
-4.704987	CLARKENWELL
-4.704987	CLARKS
-4.704987	CLASH
-4.704987	CLASHES
-4.704987	CLASHING
-4.704987	CLASP
-4.704987	CLASPED
-4.704987	CLASPING
-4.704987	CLASPS
-4.704987	CLASS
-4.704987	CLASSED
-4.704987	CLASSES
-4.704987	CLASSIC
-4.704987	CLASSICAL
-4.704987	CLASSICS
-4.704987	CLASSIFICATION
-4.704987	CLASSIFICATIONS
-4.704987	CLASSIFIED
-4.704987	CLASSIFIES
-4.704987	CLASSIFY
-4.704987	CLASSIFYING
-4.704987	CLASSING
-4.704987	CLATTER
-4.704987	CLATTERED
-4.704987	CLAUDE
-4.704987	CLAUS
-4.704987	CLAUSE
-4.704987	CLAVECIN
-4.704987	CLAVICEMBALO
-4.704987	CLAVICHORD
-4.704987	CLAVIER
-4.704987	CLAVIERS
-4.704987	CLAW
-4.704987	CLAWED
-4.704987	CLAWS
-4.704987	CLAY
-4.704987	CLAYTON
-4.704987	CLAYTON'S
-4.704987	CLEAN
-4.704987	CLEANED
-4.704987	CLEANEST
-4.704987	CLEANING
-4.704987	CLEANLINESS
-4.704987	CLEANS
-4.704987	CLEANSED
-4.704987	CLEANSING
-4.704987	CLEAR
-4.704987	CLEARED
-4.704987	CLEARER
-4.704987	CLEAREST
-4.704987	CLEARING
-4.704987	CLEARINGS
-4.704987	CLEARLY
-4.704987	CLEARNESS
-4.704987	CLEARS
-4.704987	CLEAT
-4.704987	CLEAVE
-4.704987	CLEAVES
-4.704987	CLEAVING
-4.704987	CLEFT
-4.704987	CLEFTS
-4.704987	CLEGHORN
-4.704987	CLEMATIS
-4.704987	CLEMENCY
-4.704987	CLEMENT
-4.704987	CLEMENT'S
-4.704987	CLENCH
-4.704987	CLENCHED
-4.704987	CLENCHING
-4.704987	CLEOPATRA
-4.704987	CLERGY
-4.704987	CLERGYMAN
-4.704987	CLERGYMEN
-4.704987	CLERICAL
-4.704987	CLERK
-4.704987	CLERK'S
-4.704987	CLERKENWELL
-4.704987	CLERKS
-4.704987	CLERVAL
-4.704987	CLEVELAND
-4.704987	CLEVER
-4.704987	CLEVERER
-4.704987	CLEVEREST
-4.704987	CLEVERLY
-4.704987	CLEVERNESS
-4.704987	CLEW
-4.704987	CLICK
-4.704987	CLICKED
-4.704987	CLICKING
-4.704987	CLIENT
-4.704987	CLIENTS
-4.704987	CLIFF
-4.704987	CLIFFS
-4.704987	CLIMATE
-4.704987	CLIMATES
-4.704987	CLIMATIC
-4.704987	CLIMAX
-4.704987	CLIMB
-4.704987	CLIMBABLE
-4.704987	CLIMBED
-4.704987	CLIMBING
-4.704987	CLIMBS
-4.704987	CLIME
-4.704987	CLIMES
-4.704987	CLINCH
-4.704987	CLINCHED
-4.704987	CLING
-4.704987	CLINGING
-4.704987	CLINGS
-4.704987	CLINIC
-4.704987	CLINICAL
-4.704987	CLINKING
-4.704987	CLINTON
-4.704987	CLIP
-4.704987	CLIPP'D
-4.704987	CLIPPED
-4.704987	CLIPPER
-4.704987	CLIPPING
-4.704987	CLIPS
-4.704987	CLIQUE
-4.704987	CLIQUES
-4.704987	CLO'ES
-4.704987	CLOACAM
-4.704987	CLOAK
-4.704987	CLOAKING
-4.704987	CLOAKS
-4.704987	CLOCK
